{"assets":[{"id":"7","layers":[{"ind":6,"ty":4,"parent":5,"ks":{},"ip":0,"op":481,"st":0,"shapes":[{"ty":"gr","it":[{"ty":"rc","p":{"a":0,"k":[23,23]},"r":{"a":0,"k":0},"s":{"a":0,"k":[66,66]}},{"ty":"fl","c":{"a":0,"k":[0,0,0,0]},"o":{"a":0,"k":0}},{"ty":"tr","o":{"a":0,"k":100}}]},{"ty":"gr","it":[{"ty":"sh","ks":{"a":0,"k":{"c":true,"i":[[0,0],[12.7,0],[0,12.7],[-12.7,0],[0,-12.7],[0,0]],"v":[[46,23],[23,46],[0,23],[23,0],[46,23],[46,23]],"o":[[0,12.7],[-12.7,0],[0,-12.7],[12.7,0],[0,0],[0,0]]}}},{"ty":"sh","ks":{"a":0,"k":{"c":true,"i":[[0,0],[11.9,0],[0,-11.9],[-11.9,0],[0,11.9],[0,0]],"v":[[44.6,23],[23,1.4],[1.4,23],[23,44.6],[44.6,23],[44.6,23]],"o":[[0,-11.9],[-11.9,0],[0,11.9],[11.9,0],[0,0],[0,0]]}}},{"ty":"st","c":{"a":0,"k":[1,1,1]},"lc":1,"lj":1,"ml":10,"o":{"a":0,"k":100},"w":{"a":0,"k":2}},{"ty":"tr","o":{"a":0,"k":100}}]}]},{"ind":5,"ty":3,"ks":{"p":{"a":0,"k":[10,10]}},"ip":0,"op":481,"st":0}]}],"fr":60,"h":53,"ip":0,"layers":[{"ind":4,"ty":4,"parent":3,"ks":{},"ip":0,"op":481,"st":0,"shapes":[{"ty":"gr","it":[{"ty":"rc","p":{"a":0,"k":[23,23]},"r":{"a":0,"k":0},"s":{"a":0,"k":[66.01,66.01]}},{"ty":"fl","c":{"a":0,"k":[0,0,0,0]},"o":{"a":0,"k":0}},{"ty":"tr","o":{"a":0,"k":100}}]},{"ty":"gr","it":[{"ty":"sh","ks":{"a":1,"k":[{"t":0,"s":[{"c":true,"i":[[0,0],[11.7,-1.2],[2.4,11.5],[-11.2,3.6],[0,0],[-2.3,-10.8],[-11,1.2],[0,11.1],[0,0]],"v":[[46,23],[25.4,45.9],[0.5,27.8],[15.9,1.1],[16.3,2.4],[1.9,27.5],[25.3,44.5],[44.6,23],[46,23]],"o":[[0,11.8],[-11.7,1.2],[-2.4,-11.5],[0,0],[-10.5,3.4],[2.3,10.8],[11,-1.2],[0,0],[0,0]]}],"h":1},{"t":1,"s":[{"c":true,"i":[[0,0],[11.6,-0.8],[2.2,11.5],[-11.1,3.5],[0,0],[-2,-10.8],[-10.9,0.7],[-0.5,10.9],[0,0]],"v":[[46,24.1],[24.6,45.9],[0.4,27.3],[16.1,1.1],[16.5,2.4],[1.8,27],[24.5,44.6],[44.6,24.1],[46,24.1]],"o":[[-0.6,11.6],[-11.6,0.8],[-2.2,-11.5],[0,0],[-10.5,3.3],[2,10.8],[10.9,-0.7],[0,0],[0,0]]}],"h":1},{"t":2,"s":[{"c":true,"i":[[0,0],[11.5,-0.2],[1.8,11.4],[-11,3.3],[0,0],[-1.6,-10.7],[-10.8,0.2],[-1.3,10.7],[0,0]],"v":[[45.8,25.8],[23.4,46],[0.3,26.5],[16.4,1],[16.8,2.3],[1.6,26.3],[23.4,44.6],[44.5,25.6],[45.8,25.8]],"o":[[-1.4,11.4],[-11.5,0.2],[-1.8,-11.4],[0,0],[-10.3,3.1],[1.6,10.7],[10.8,-0.2],[0,0],[0,0]]}],"h":1},{"t":3,"s":[{"c":true,"i":[[0,0],[11.3,0.6],[1.2,11.2],[-10.9,3],[0,0],[-1.2,-10.5],[-10.6,-0.6],[-2.3,10.4],[0,0]],"v":[[45.5,27.9],[21.8,46],[0.1,25.5],[16.8,0.8],[17.2,2.2],[1.5,25.4],[21.9,44.6],[44.1,27.6],[45.5,27.9]],"o":[[-2.4,11],[-11.3,-0.6],[-1.2,-11.2],[0,0],[-10.2,2.8],[1.2,10.5],[10.6,0.6],[0,0],[0,0]]}],"h":1},{"t":4,"s":[{"c":true,"i":[[0,0],[10.9,1.5],[0.6,11],[-10.7,2.7],[0,0],[-0.6,-10.3],[-10.2,-1.4],[-3.4,9.8],[0,0]],"v":[[44.7,30.5],[19.8,45.8],[0,24.2],[17.4,0.7],[17.7,2],[1.4,24.2],[20,44.4],[43.4,30.1],[44.7,30.5]],"o":[[-3.6,10.4],[-10.9,-1.5],[-0.6,-11],[0,0],[-10,2.5],[0.6,10.3],[10.2,1.4],[0,0],[0,0]]}],"h":1},{"t":5,"s":[{"c":true,"i":[[0,0],[10.3,2.6],[-0.1,10.7],[-10.4,2.3],[0,0],[0.1,-10],[-9.7,-2.4],[-4.6,8.9],[0,0]],"v":[[43.4,33.6],[17.4,45.3],[0,22.7],[18,0.5],[18.3,1.9],[1.4,22.7],[17.7,44],[42.2,32.9],[43.4,33.6]],"o":[[-4.9,9.5],[-10.3,-2.6],[0.1,-10.7],[0,0],[-9.8,2.2],[-0.1,10],[9.7,2.4],[0,0],[0,0]]}],"h":1},{"t":6,"s":[{"c":true,"i":[[0,0],[9.6,3.7],[-0.9,10.2],[-10.1,1.9],[0,0],[0.9,-9.6],[-9,-3.5],[-5.8,7.7],[0,0]],"v":[[41.4,36.8],[14.7,44.5],[0.1,20.9],[18.8,0.4],[19,1.7],[1.5,21],[15.2,43.2],[40.3,36],[41.4,36.8]],"o":[[-6.2,8.2],[-9.6,-3.7],[0.9,-10.2],[0,0],[-9.5,1.8],[-0.9,9.6],[9,3.5],[0,0],[0,0]]}],"h":1},{"t":7,"s":[{"c":true,"i":[[0,0],[8.6,4.8],[-1.8,9.7],[-9.7,1.4],[0,0],[1.7,-9.1],[-8.1,-4.5],[-6.9,6.2],[0,0]],"v":[[38.5,40],[11.8,43.1],[0.4,18.9],[19.6,0.2],[19.8,1.6],[1.7,19.1],[12.5,41.9],[37.5,39],[38.5,40]],"o":[[-7.3,6.6],[-8.6,-4.8],[1.8,-9.7],[0,0],[-9.2,1.4],[-1.7,9.1],[8.1,4.5],[0,0],[0,0]]}],"h":1},{"t":8,"s":[{"c":true,"i":[[0,0],[7.4,5.7],[-2.6,9],[-9.3,1],[0,0],[2.4,-8.5],[-7,-5.4],[-7.6,4.5],[0,0]],"v":[[34.6,42.8],[8.9,41.2],[0.9,16.7],[20.6,0.1],[20.7,1.5],[2.2,17.1],[9.8,40.1],[34,41.6],[34.6,42.8]],"o":[[-8.1,4.8],[-7.4,-5.7],[2.6,-9],[0,0],[-8.8,0.9],[-2.4,8.5],[7,5.4],[0,0],[0,0]]}],"h":1},{"t":9,"s":[{"c":true,"i":[[0,0],[6.1,6.5],[-3.3,8.3],[-8.9,0.6],[0,0],[3.1,-7.8],[-5.7,-6.1],[-8,2.6],[0,0]],"v":[[30.1,44.9],[6.2,38.7],[1.6,14.5],[21.6,0],[21.6,1.4],[2.9,15],[7.2,37.8],[29.7,43.6],[30.1,44.9]],"o":[[-8.5,2.7],[-6.1,-6.5],[3.3,-8.3],[0,0],[-8.4,0.5],[-3.1,7.8],[5.7,6.1],[0,0],[0,0]]}],"h":1},{"t":10,"s":[{"c":true,"i":[[0,0],[4.7,7],[-3.9,7.5],[-8.4,0.2],[0,0],[3.7,-7],[-4.4,-6.6],[-7.9,0.7],[0,0]],"v":[[25.1,45.9],[3.9,35.8],[2.6,12.3],[22.6,0],[22.6,1.4],[3.8,13],[5,35],[24.9,44.5],[25.1,45.9]],"o":[[-8.4,0.8],[-4.7,-7],[3.9,-7.5],[0,0],[-7.9,0.1],[-3.7,7],[4.4,6.6],[0,0],[0,0]]}],"h":1},{"t":11,"s":[{"c":true,"i":[[0,0],[-1,12.2],[-2.0999999999999996,3.200000000000001],[-3.4000000000000004,1.7000000000000002],[-4.100000000000001,-0.1],[0,0],[0.9,-11.5],[-11.4,-1.5],[0,0]],"v":[[19.9,45.8],[0.1,21.2],[3.9,10.2],[12.3,2.7],[23.6,0],[23.6,1.4],[1.4,21.3],[20.1,44.4],[19.9,45.8]],"o":[[-12.1,-1.6],[0.30000000000000004,-4.099999999999998],[2.1999999999999997,-3.1999999999999993],[3.3999999999999986,-1.8000000000000003],[0,0],[-11.5,-0.3],[-0.9,11.5],[0,0],[0,0]]}],"h":1},{"t":12,"s":[{"c":true,"i":[[0,0],[-2.4,11.2],[-2.3,2.6999999999999993],[-3.3000000000000007,1.5],[-3.8000000000000007,-0.30000000000000004],[0,0],[2.3,-10.5],[-10.1,-3.7],[0,0]],"v":[[15,44.6],[0.5,18.2],[5.3,8.4],[13.8,1.9],[24.6,0.1],[24.5,1.4],[1.9,18.4],[15.5,43.3],[15,44.6]],"o":[[-10.7,-4],[0.8,-3.6999999999999993],[2.3,-2.8000000000000007],[3.3000000000000007,-1.4],[0,0],[-10.7,-0.8],[-2.3,10.5],[0,0],[0,0]]}],"h":1},{"t":13,"s":[{"c":true,"i":[[0,0],[1.7999999999999998,2.8999999999999986],[0.4,3.3999999999999986],[-1.2,3.3999999999999986],[-10.6,-1.2],[0,0],[3.4,-9.5],[-8.5,-5.4],[0,0]],"v":[[10.7,42.4],[3.5,35],[0.1,25.5],[1.3,15.3],[25.6,0.1],[25.4,1.5],[2.6,15.8],[11.4,41.2],[10.7,42.4]],"o":[[-2.999999999999999,-1.8999999999999986],[-1.8,-2.8999999999999986],[-0.4,-3.3000000000000007],[3.6,-10.1],[0,0],[-10,-1.1],[-3.4,9.5],[0,0],[0,0]]}],"h":1},{"t":14,"s":[{"c":true,"i":[[0,0],[1.1999999999999997,3],[-0.1,3.1999999999999993],[-1.5,3],[-9.9,-1.5],[0,0],[4.2,-8.4],[-6.8,-6.6],[0,0]],"v":[[7,39.5],[1.6,31.4],[0,22.1],[2.4,12.7],[26.5,0.3],[26.3,1.6],[3.6,13.4],[8,38.5],[7,39.5]],"o":[[-2.4000000000000004,-2.299999999999997],[-1.2000000000000002,-2.8999999999999986],[0.1,-3.200000000000003],[4.5,-9],[0,0],[-9.3,-1.4],[-4.2,8.4],[0,0],[0,0]]}],"h":1},{"t":15,"s":[{"c":true,"i":[[0,0],[0.6000000000000001,3],[-0.5,3],[-1.7000000000000002,2.5999999999999996],[-9.2,-1.8],[0,0],[4.8,-7.4],[-5,-7.2],[0,0]],"v":[[4.1,36.2],[0.5,27.8],[0.3,18.9],[3.7,10.4],[27.4,0.4],[27.1,1.8],[4.9,11.2],[5.3,35.4],[4.1,36.2]],"o":[[-1.7999999999999998,-2.6000000000000014],[-0.7,-2.900000000000002],[0.6000000000000001,-2.9999999999999982],[5.1,-7.9],[0,0],[-8.6,-1.7],[-4.8,7.4],[0,0],[0,0]]}],"h":1},{"t":16,"s":[{"c":true,"i":[[0,0],[0.1,2.8000000000000007],[-0.9000000000000001,2.700000000000001],[-1.9000000000000004,2.299999999999999],[-8.5,-2],[0,0],[5.2,-6.4],[-3.4,-7.5],[0,0]],"v":[[2.1,32.5],[0.1,24.2],[1.1,15.9],[5.2,8.4],[28.2,0.6],[27.9,1.9],[6.3,9.3],[3.3,32],[2.1,32.5]],"o":[[-1.2000000000000002,-2.6999999999999993],[-0.2,-2.8000000000000007],[0.8999999999999999,-2.700000000000001],[5.6,-6.8],[0,0],[-8,-1.9],[-5.2,6.4],[0,0],[0,0]]}],"h":1},{"t":17,"s":[{"c":true,"i":[[0,0],[-0.2,2.700000000000003],[-1.1,2.3999999999999986],[-1.8999999999999995,1.8999999999999995],[-7.9,-2.1],[0,0],[5.5,-5.4],[-2,-7.5],[0,0]],"v":[[0.8,28.9],[0.1,20.9],[2.2,13.3],[6.8,6.7],[29,0.8],[28.6,2.1],[7.7,7.7],[2.1,28.5],[0.8,28.9]],"o":[[-0.7000000000000001,-2.599999999999998],[0.30000000000000004,-2.599999999999998],[1.0999999999999996,-2.4000000000000004],[5.8,-5.8],[0,0],[-7.4,-2],[-5.5,5.4],[0,0],[0,0]]}],"h":1},{"t":18,"s":[{"c":true,"i":[[0,0],[-0.6,2.3999999999999986],[-1.2999999999999998,2.0999999999999996],[-2,1.5999999999999996],[-7.4,-2.2],[0,0],[5.6,-4.6],[-0.7,-7.2],[0,0]],"v":[[0.1,25.3],[0.6,17.8],[3.4,10.9],[8.4,5.2],[29.7,1],[29.3,2.3],[9.3,6.3],[1.5,25.2],[0.1,25.3]],"o":[[-0.30000000000000004,-2.6000000000000014],[0.6,-2.5],[1.4,-2.0999999999999996],[5.9,-4.9],[0,0],[-6.9,-2.1],[-5.6,4.6],[0,0],[0,0]]}],"h":1},{"t":19,"s":[{"c":true,"i":[[0,0],[-0.7999999999999999,2.1999999999999993],[-1.4,1.799999999999999],[-2,1.4000000000000004],[-6.8,-2.3],[0,0],[5.6,-3.8],[0.3,-6.8],[0,0]],"v":[[0,21.9],[1.4,15],[4.8,8.9],[10,4],[30.3,1.2],[29.9,2.5],[10.8,5.2],[1.4,22],[0,21.9]],"o":[[0.1,-2.3999999999999986],[0.8000000000000003,-2.1999999999999993],[1.5,-1.9000000000000004],[6,-4.1],[0,0],[-6.4,-2.2],[-5.6,3.8],[0,0],[0,0]]}],"h":1},{"t":20,"s":[{"c":true,"i":[[0,0],[-1,1.9000000000000004],[-1.5,1.5999999999999996],[-2,1.0999999999999996],[-6.4,-2.3],[0,0],[5.5,-3.2],[1.2,-6.3],[0,0]],"v":[[0.4,18.8],[2.5,12.5],[6.3,7.1],[11.6,3],[30.9,1.4],[30.4,2.7],[12.3,4.2],[1.7,19.1],[0.4,18.8]],"o":[[0.4,-2.1999999999999993],[1,-2],[1.6000000000000005,-1.5999999999999996],[5.9,-3.4],[0,0],[-6,-2.2],[-5.5,3.2],[0,0],[0,0]]}],"h":1},{"t":21,"s":[{"c":true,"i":[[0,0],[-1.1999999999999997,1.799999999999999],[-1.6000000000000005,1.4000000000000004],[-1.8999999999999986,0.8999999999999999],[-5.9,-2.3],[0,0],[5.4,-2.6],[1.8,-5.7],[0,0]],"v":[[1.1,16],[3.8,10.3],[7.9,5.6],[13.2,2.2],[31.5,1.6],[30.9,2.9],[13.8,3.5],[2.4,16.4],[1.1,16]],"o":[[0.5999999999999999,-2],[1.1000000000000005,-1.700000000000001],[1.5999999999999996,-1.2999999999999998],[5.8,-2.7],[0,0],[-5.6,-2.2],[-5.4,2.6],[0,0],[0,0]]}],"h":1},{"t":22,"s":[{"c":true,"i":[[0,0],[-1.5999999999999996,1.6999999999999993],[-2.0999999999999996,1.1],[-2.3000000000000007,0.5000000000000001],[-2.3999999999999986,-0.2],[-2.3000000000000007,-1],[0,0],[4.9,-10.6],[0,0]],"v":[[2.1,13.4],[6.1,7.4],[11.6,3.1],[18,0.6],[25,0.1],[32,1.8],[31.4,3.1],[3.3,14],[2.1,13.4]],"o":[[1,-2.3000000000000007],[1.6000000000000005,-1.7000000000000002],[2,-1.2000000000000002],[2.3000000000000007,-0.6],[2.3000000000000007,0.19999999999999998],[0,0],[-10.8,-4.6],[0,0],[0,0]]}],"h":1},{"t":23,"s":[{"c":true,"i":[[0,0],[-1.5999999999999996,1.5],[-2,0.9000000000000004],[-2.1000000000000014,0.3],[-2.1999999999999993,-0.30000000000000004],[-2.099999999999998,-1],[0,0],[5.6,-9.4],[0,0]],"v":[[3.3,11.2],[7.6,5.9],[13.1,2.3],[19.3,0.3],[25.9,0.2],[32.4,2],[31.9,3.3],[4.4,11.9],[3.3,11.2]],"o":[[1.2000000000000002,-2],[1.700000000000001,-1.5],[2,-0.9999999999999998],[2.1999999999999993,-0.4],[2.200000000000003,0.2],[0,0],[-10,-4.5],[0,0],[0,0]]}],"h":1},{"t":24,"s":[{"c":true,"i":[[0,0],[-1.7000000000000002,1.2999999999999998],[-1.9000000000000004,0.7999999999999998],[-2,0.30000000000000004],[-2.099999999999998,-0.4],[-1.9999999999999964,-0.9000000000000001],[0,0],[6.2,-8.3],[0,0]],"v":[[4.5,9.3],[9,4.7],[14.4,1.6],[20.4,0.1],[26.7,0.3],[32.8,2.2],[32.3,3.5],[5.7,10.1],[4.5,9.3]],"o":[[1.2999999999999998,-1.8000000000000007],[1.6999999999999993,-1.2000000000000002],[1.9000000000000004,-0.7000000000000001],[2.1000000000000014,-0.2],[2.1000000000000014,0.3],[0,0],[-9.3,-4.4],[0,0],[0,0]]}],"h":1},{"t":25,"s":[{"c":true,"i":[[0,0],[-1.6999999999999993,1],[-1.8000000000000007,0.5999999999999999],[-2,0.1],[-2,-0.4],[-1.8000000000000043,-0.8999999999999999],[0,0],[6.5,-7.2],[0,0]],"v":[[5.9,7.6],[10.5,3.7],[15.8,1.1],[21.6,0],[27.5,0.4],[33.2,2.4],[32.6,3.6],[6.9,8.5],[5.9,7.6]],"o":[[1.3999999999999995,-1.5],[1.6999999999999993,-1.1],[1.8999999999999986,-0.6000000000000001],[2,-0.1],[1.8999999999999986,0.4],[0,0],[-8.7,-4.3],[0,0],[0,0]]}],"h":1},{"t":26,"s":[{"c":true,"i":[[0,0],[-1.5999999999999996,0.8999999999999999],[-1.8000000000000007,0.5],[-1.8999999999999986,0.1],[-1.8000000000000007,-0.39999999999999997],[-1.7000000000000028,-0.9000000000000001],[0,0],[6.7,-6.2],[0,0]],"v":[[7.3,6.2],[11.9,2.9],[17.1,0.8],[22.7,0],[28.2,0.6],[33.6,2.6],[33,3.8],[8.3,7.2],[7.3,6.2]],"o":[[1.3999999999999995,-1.2999999999999998],[1.6999999999999993,-0.8999999999999999],[1.8999999999999986,-0.5],[1.8000000000000007,0],[1.9000000000000021,0.4],[0,0],[-8.1,-4.2],[0,0],[0,0]]}],"h":1},{"t":27,"s":[{"c":true,"i":[[0,0],[-1.6000000000000014,0.6999999999999997],[-1.6999999999999993,0.4],[-1.8000000000000007,0],[-1.7999999999999972,-0.5],[-1.6000000000000014,-0.8999999999999999],[0,0],[6.8,-5.4],[0,0]],"v":[[8.7,5],[13.3,2.2],[18.3,0.5],[23.6,0],[28.9,0.8],[33.9,2.8],[33.3,4],[9.6,6.1],[8.7,5]],"o":[[1.4000000000000004,-1.1],[1.5999999999999996,-0.8000000000000003],[1.8000000000000007,-0.4],[1.7999999999999972,0.1],[1.7000000000000028,0.5],[0,0],[-7.6,-4.1],[0,0],[0,0]]}],"h":1},{"t":28,"s":[{"c":true,"i":[[0,0],[-1.5,0.6000000000000001],[-1.6000000000000014,0.2],[-1.6999999999999993,-0.1],[-1.6999999999999993,-0.4],[-1.5,-0.7999999999999998],[0,0],[6.8,-4.6],[0,0]],"v":[[10.1,4],[14.6,1.6],[19.5,0.3],[24.5,0.1],[29.5,0.9],[34.2,2.9],[33.5,4.1],[10.9,5.1],[10.1,4]],"o":[[1.4000000000000004,-1],[1.5999999999999996,-0.6000000000000001],[1.6999999999999993,-0.3],[1.6999999999999993,0.1],[1.6000000000000014,0.4999999999999999],[0,0],[-7.1,-4],[0,0],[0,0]]}],"h":1},{"t":29,"s":[{"c":true,"i":[[0,0],[-1.5,0.5],[-1.6000000000000014,0.19999999999999998],[-1.5,-0.2],[-1.6000000000000014,-0.5000000000000001],[-1.3999999999999986,-0.8000000000000003],[0,0],[6.7,-3.9],[0,0]],"v":[[11.4,3.1],[15.8,1.1],[20.6,0.1],[25.3,0.1],[30.1,1.1],[34.5,3.1],[33.8,4.3],[12.1,4.3],[11.4,3.1]],"o":[[1.4000000000000004,-0.8000000000000003],[1.5999999999999979,-0.5000000000000001],[1.5,-0.2],[1.5999999999999979,0.19999999999999998],[1.5,0.5],[0,0],[-6.7,-3.9],[0,0],[0,0]]}],"h":1},{"t":30,"s":[{"c":true,"i":[[0,0],[-1.4000000000000004,0.3999999999999999],[-1.5,0.1],[-1.5,-0.2],[-1.3999999999999986,-0.5],[-1.3000000000000043,-0.8000000000000003],[0,0],[6.6,-3.3],[0,0]],"v":[[12.7,2.4],[17,0.8],[21.5,0],[26.1,0.2],[30.5,1.2],[34.7,3.2],[34,4.4],[13.3,3.7],[12.7,2.4]],"o":[[1.4000000000000004,-0.7],[1.5,-0.4],[1.6000000000000014,-0.1],[1.5,0.2],[1.5,0.5],[0,0],[-6.3,-3.8],[0,0],[0,0]]}],"h":1},{"t":31,"s":[{"c":true,"i":[[0,0],[-1.4000000000000021,0.30000000000000004],[-1.3999999999999986,0],[-1.5,-0.19999999999999998],[-1.3999999999999986,-0.6],[-1.2999999999999972,-0.7999999999999998],[0,0],[6.4,-2.8],[0,0]],"v":[[13.9,1.9],[18.1,0.5],[22.4,0],[26.8,0.3],[31,1.5],[35,3.4],[34.2,4.5],[14.4,3.1],[13.9,1.9]],"o":[[1.4000000000000004,-0.5999999999999999],[1.3999999999999986,-0.3],[1.5,0],[1.3999999999999986,0.3],[1.3999999999999986,0.5],[0,0],[-6,-3.6],[0,0],[0,0]]}],"h":1},{"t":32,"s":[{"c":true,"i":[[0,0],[-1.4000000000000021,0.2],[-1.4000000000000021,-0.1],[-1.2999999999999972,-0.30000000000000004],[-1.2999999999999972,-0.5],[-1.2000000000000028,-0.7999999999999998],[0,0],[6.3,-2.3],[0,0]],"v":[[15,1.4],[19.1,0.3],[23.3,0],[27.4,0.4],[31.4,1.6],[35.2,3.5],[34.4,4.7],[15.5,2.7],[15,1.4]],"o":[[1.3000000000000007,-0.4999999999999999],[1.3999999999999986,-0.19999999999999998],[1.3999999999999986,0],[1.4000000000000021,0.29999999999999993],[1.3000000000000043,0.5],[0,0],[-5.7,-3.5],[0,0],[0,0]]}],"h":1},{"t":33,"s":[{"c":true,"i":[[0,0],[-1.4000000000000021,0.2],[-1.4000000000000021,-0.1],[-1.3000000000000007,-0.2],[-1.1999999999999993,-0.5],[-1.1000000000000014,-0.7000000000000002],[0,0],[6.1,-1.9],[0,0]],"v":[[16.1,1.1],[20.1,0.2],[24.1,0.1],[28,0.5],[31.8,1.7],[35.4,3.6],[34.6,4.8],[16.5,2.4],[16.1,1.1]],"o":[[1.2999999999999972,-0.40000000000000013],[1.2999999999999972,-0.1],[1.2999999999999972,0],[1.3000000000000007,0.30000000000000004],[1.3000000000000007,0.5000000000000002],[0,0],[-5.4,-3.4],[0,0],[0,0]]}],"h":1},{"t":34,"s":[{"c":true,"i":[[0,0],[-1.3000000000000007,0.1],[-1.2000000000000028,0],[-1.1999999999999993,-0.3],[-1.2000000000000028,-0.5999999999999999],[-1.1000000000000014,-0.7000000000000002],[0,0],[5.9,-1.6],[0,0]],"v":[[17,0.8],[20.8,0.1],[24.6,0],[28.4,0.6],[32.1,1.9],[35.5,3.7],[34.8,4.9],[17.4,2.1],[17,0.8]],"o":[[1.3000000000000007,-0.30000000000000004],[1.3000000000000007,-0.1],[1.2999999999999972,0.1],[1.3000000000000007,0.30000000000000004],[1.1999999999999957,0.5],[0,0],[-5.1,-3.3],[0,0],[0,0]]}],"h":1},{"t":35,"s":[{"c":true,"i":[[0,0],[-1.2000000000000028,0],[-1.1999999999999993,-0.1],[-1.0999999999999979,-0.4],[-1.0999999999999979,-0.5],[-1,-0.6999999999999997],[0,0],[5.7,-1.3],[0,0]],"v":[[17.9,0.6],[21.6,0.1],[25.3,0.1],[28.9,0.8],[32.4,2],[35.7,3.8],[34.9,5],[18.2,1.9],[17.9,0.6]],"o":[[1.2000000000000028,-0.3],[1.1999999999999993,-0.1],[1.1999999999999993,0.1],[1.2000000000000028,0.30000000000000004],[1.2000000000000028,0.5],[0,0],[-4.9,-3.2],[0,0],[0,0]]}],"h":1},{"t":36,"s":[{"c":true,"i":[[0,0],[-1.1999999999999993,0.1],[-1.1999999999999993,-0.2],[-1.1000000000000014,-0.30000000000000004],[-1.1000000000000014,-0.5],[-1,-0.6999999999999997],[0,0],[5.6,-1.1],[0,0]],"v":[[18.7,0.4],[22.3,0],[25.8,0.2],[29.3,0.9],[32.7,2.1],[35.8,3.9],[35,5],[19,1.8],[18.7,0.4]],"o":[[1.1999999999999993,-0.2],[1.1999999999999993,0],[1.1999999999999993,0.09999999999999998],[1.1999999999999993,0.29999999999999993],[1.0999999999999943,0.5],[0,0],[-4.7,-3.2],[0,0],[0,0]]}],"h":1},{"t":37,"s":[{"c":true,"i":[[0,0],[-1.1999999999999993,0],[-1.0999999999999979,-0.19999999999999998],[-1.0999999999999979,-0.30000000000000004],[-1,-0.4999999999999998],[-1,-0.7000000000000002],[0,0],[5.4,-0.8],[0,0]],"v":[[19.5,0.3],[23,0],[26.4,0.3],[29.7,1],[32.9,2.3],[35.9,4],[35.2,5.1],[19.7,1.6],[19.5,0.3]],"o":[[1.1999999999999993,-0.19999999999999998],[1.1000000000000014,0],[1.1000000000000014,0.10000000000000003],[1.1000000000000014,0.30000000000000004],[1,0.5],[0,0],[-4.5,-3.1],[0,0],[0,0]]}],"h":1},{"t":38,"s":[{"c":true,"i":[[0,0],[-1.1999999999999993,0],[-1.1000000000000014,-0.09999999999999998],[-1.1000000000000014,-0.30000000000000004],[-1,-0.5],[-0.8999999999999986,-0.5999999999999996],[0,0],[5.3,-0.7],[0,0]],"v":[[20.1,0.2],[23.5,0],[26.8,0.3],[30,1.1],[33.1,2.4],[36,4.1],[35.3,5.2],[20.3,1.5],[20.1,0.2]],"o":[[1.0999999999999979,-0.1],[1.1000000000000014,0.1],[1.0999999999999979,0.2],[1,0.3999999999999999],[1,0.5],[0,0],[-4.4,-3],[0,0],[0,0]]}],"h":1},{"t":39,"s":[{"c":true,"i":[[0,0],[-1.1000000000000014,0],[-1.0999999999999979,-0.2],[-1,-0.29999999999999993],[-1,-0.3999999999999999],[-0.8999999999999986,-0.5999999999999996],[0,0],[5.1,-0.5],[0,0]],"v":[[20.7,0.1],[24,0],[27.2,0.4],[30.3,1.2],[33.3,2.4],[36.1,4.1],[35.4,5.3],[20.8,1.5],[20.7,0.1]],"o":[[1.1000000000000014,-0.1],[1.1000000000000014,0.1],[1.1000000000000014,0.19999999999999996],[1,0.40000000000000013],[1,0.5],[0,0],[-4.2,-2.9],[0,0],[0,0]]}],"h":1},{"t":40,"s":[{"c":true,"i":[[0,0],[-1.0999999999999979,-0.1],[-1,-0.2],[-0.8999999999999986,-0.30000000000000004],[-1,-0.3999999999999999],[-0.9000000000000057,-0.6000000000000001],[0,0],[5,-0.4],[0,0]],"v":[[21.2,0.1],[24.4,0.1],[27.5,0.5],[30.5,1.3],[33.5,2.5],[36.2,4.2],[35.4,5.3],[21.3,1.4],[21.2,0.1]],"o":[[1.1000000000000014,-0.1],[1,0],[1,0.19999999999999996],[1,0.30000000000000004],[0.8999999999999986,0.5],[0,0],[-4.1,-2.9],[0,0],[0,0]]}],"h":1},{"t":41,"s":[{"c":true,"i":[[0,0],[-1,0],[-1,-0.2],[-1,-0.30000000000000004],[-0.8999999999999986,-0.5],[-0.8999999999999986,-0.6000000000000001],[0,0],[4.9,-0.3],[0,0]],"v":[[21.6,0],[24.7,0],[27.8,0.5],[30.8,1.3],[33.6,2.6],[36.3,4.2],[35.5,5.4],[21.7,1.4],[21.6,0]],"o":[[1,-0.1],[1,0.1],[1,0.19999999999999996],[0.8999999999999986,0.3999999999999999],[0.8999999999999986,0.5],[0,0],[-4,-2.8],[0,0],[0,0]]}],"h":1},{"t":42,"s":[{"c":true,"i":[[0,0],[-1.1000000000000014,-0.1],[-1,-0.3],[-1,-0.2999999999999998],[-0.8999999999999986,-0.5],[-0.7999999999999972,-0.5999999999999996],[0,0],[4.8,-0.2],[0,0]],"v":[[22,0],[25.1,0.1],[28.1,0.6],[31,1.4],[33.8,2.7],[36.4,4.3],[35.6,5.4],[22.1,1.4],[22,0]],"o":[[1,0],[1,0.1],[1,0.20000000000000007],[0.8999999999999986,0.40000000000000013],[0.9000000000000057,0.5],[0,0],[-3.9,-2.8],[0,0],[0,0]]}],"h":1},{"t":43,"s":[{"c":true,"i":[[0,0],[-1,-0.1],[-0.8999999999999986,-0.19999999999999996],[-0.9000000000000021,-0.30000000000000004],[-0.7999999999999972,-0.40000000000000036],[-0.7999999999999972,-0.5999999999999996],[0,0],[4.7,-0.1],[0,0]],"v":[[22.3,0],[25.3,0.1],[28.2,0.6],[31.1,1.5],[33.8,2.7],[36.4,4.3],[35.6,5.4],[22.4,1.4],[22.3,0]],"o":[[1,0],[1,0.1],[1,0.30000000000000004],[0.8999999999999986,0.3999999999999999],[0.9000000000000057,0.5],[0,0],[-3.8,-2.8],[0,0],[0,0]]}],"h":1},{"t":44,"s":[{"c":true,"i":[[0,0],[-1,-0.1],[-1,-0.19999999999999996],[-0.9000000000000021,-0.30000000000000004],[-0.8999999999999986,-0.40000000000000036],[-0.7999999999999972,-0.5999999999999996],[0,0],[4.7,-0.1],[0,0]],"v":[[22.6,0],[25.6,0.1],[28.5,0.6],[31.3,1.5],[34,2.7],[36.5,4.3],[35.6,5.5],[22.6,1.4],[22.6,0]],"o":[[1,0],[1,0.1],[1,0.30000000000000004],[0.9000000000000021,0.3999999999999999],[0.8999999999999986,0.5],[0,0],[-3.8,-2.7],[0,0],[0,0]]}],"h":1},{"t":45,"s":[{"c":true,"i":[[0,0],[-0.8999999999999986,-0.1],[-1,-0.29999999999999993],[-0.8999999999999986,-0.40000000000000013],[-0.7999999999999972,-0.5],[-0.7999999999999972,-0.6000000000000005],[0,0],[4.6,0],[0,0]],"v":[[22.8,0],[25.7,0.1],[28.6,0.7],[31.4,1.6],[34,2.8],[36.5,4.4],[35.7,5.5],[22.8,1.4],[22.8,0]],"o":[[1,0],[1,0.19999999999999998],[0.8999999999999986,0.20000000000000007],[0.8999999999999986,0.2999999999999998],[0.8999999999999986,0.5],[0,0],[-3.7,-2.7],[0,0],[0,0]]}],"h":1},{"t":46,"s":[{"c":true,"i":[[0,0],[-0.9000000000000021,-0.1],[-1,-0.19999999999999996],[-0.8999999999999986,-0.40000000000000013],[-0.7999999999999972,-0.3999999999999999],[-0.7999999999999972,-0.6000000000000005],[0,0],[4.6,0],[0,0]],"v":[[22.9,0],[25.8,0.2],[28.7,0.7],[31.4,1.6],[34,2.8],[36.5,4.4],[35.7,5.5],[22.9,1.4],[22.9,0]],"o":[[1,0],[1,0.09999999999999998],[0.9000000000000021,0.30000000000000004],[0.8999999999999986,0.3999999999999999],[0.8999999999999986,0.5],[0,0],[-3.7,-2.7],[0,0],[0,0]]}],"h":1},{"t":47,"s":[{"c":true,"i":[[0,0],[-0.8999999999999986,-0.1],[-0.8999999999999986,-0.19999999999999996],[-0.8999999999999986,-0.40000000000000013],[-0.8999999999999986,-0.3999999999999999],[-0.7999999999999972,-0.6000000000000005],[0,0],[4.6,0],[0,0]],"v":[[23,0],[25.9,0.2],[28.7,0.7],[31.5,1.6],[34.1,2.8],[36.5,4.4],[35.7,5.5],[23,1.4],[23,0]],"o":[[1,0],[1,0.09999999999999998],[1,0.30000000000000004],[0.8999999999999986,0.3999999999999999],[0.7999999999999972,0.5],[0,0],[-3.7,-2.7],[0,0],[0,0]]}],"h":1},{"t":48,"s":[{"c":true,"i":[[0,0],[-0.8999999999999986,-0.1],[-0.8999999999999986,-0.19999999999999996],[-0.8999999999999986,-0.40000000000000013],[-0.8999999999999986,-0.3999999999999999],[-0.7999999999999972,-0.6000000000000005],[0,0],[4.6,0],[0,0]],"v":[[23,0],[25.9,0.2],[28.7,0.7],[31.5,1.6],[34.1,2.8],[36.5,4.4],[35.7,5.5],[23,1.4],[23,0]],"o":[[1,0],[1,0.09999999999999998],[1,0.30000000000000004],[0.8999999999999986,0.3999999999999999],[0.7999999999999972,0.5],[0,0],[-3.7,-2.7],[0,0],[0,0]]}],"h":1},{"t":61,"s":[{"c":true,"i":[[0,0],[-1,-0.1],[-1,-0.30000000000000004],[-1,-0.40000000000000013],[-0.8999999999999986,-0.5],[-0.8000000000000043,-0.5999999999999996],[0,0],[4.8,0],[0,0]],"v":[[23,0],[26,0.2],[29,0.8],[31.9,1.8],[34.6,3.1],[37.1,4.8],[36.2,5.9],[23,1.4],[23,0]],"o":[[1,0],[1,0.09999999999999998],[1,0.30000000000000004],[0.8999999999999986,0.40000000000000013],[0.8999999999999986,0.5],[0,0],[-3.8,-2.9],[0,0],[0,0]]}],"h":1},{"t":62,"s":[{"c":true,"i":[[0,0],[-1,-0.1],[-1.0999999999999979,-0.30000000000000004],[-1,-0.3999999999999999],[-0.9000000000000057,-0.6000000000000001],[-0.7999999999999972,-0.7000000000000002],[0,0],[5.1,0],[0,0]],"v":[[23,0],[26.2,0.2],[29.4,0.9],[32.4,2],[35.2,3.5],[37.8,5.4],[36.9,6.5],[23,1.4],[23,0]],"o":[[1.1000000000000014,0],[1.1000000000000014,0.2],[1,0.29999999999999993],[1,0.3999999999999999],[0.8999999999999986,0.5999999999999996],[0,0],[-3.9,-3.3],[0,0],[0,0]]}],"h":1},{"t":63,"s":[{"c":true,"i":[[0,0],[-1.0999999999999979,-0.19999999999999998],[-1.1000000000000014,-0.30000000000000004],[-1,-0.4999999999999998],[-1,-0.6000000000000001],[-0.9000000000000057,-0.7999999999999998],[0,0],[5.5,0],[0,0]],"v":[[23,0],[26.4,0.3],[29.8,1],[33,2.3],[36,4],[38.7,6.2],[37.8,7.2],[23,1.4],[23,0]],"o":[[1.1999999999999993,0],[1.2000000000000028,0.10000000000000003],[1.0999999999999979,0.3999999999999999],[1,0.5],[0.8999999999999986,0.7000000000000002],[0,0],[-4,-3.8],[0,0],[0,0]]}],"h":1},{"t":64,"s":[{"c":true,"i":[[0,0],[-1.3000000000000007,-0.19999999999999998],[-1.0999999999999979,-0.3999999999999999],[-1.1000000000000014,-0.5],[-1,-0.7999999999999998],[-0.8999999999999986,-0.8999999999999995],[0,0],[6,0],[0,0]],"v":[[23,0],[26.8,0.3],[30.4,1.2],[33.9,2.7],[37,4.8],[39.8,7.3],[38.8,8.2],[23,1.4],[23,0]],"o":[[1.3000000000000007,0],[1.1999999999999993,0.2],[1.2000000000000028,0.5],[1.1000000000000014,0.5999999999999996],[1,0.7000000000000002],[0,0],[-4.1,-4.4],[0,0],[0,0]]}],"h":1},{"t":65,"s":[{"c":true,"i":[[0,0],[-1.3000000000000007,-0.30000000000000004],[-1.3000000000000007,-0.5],[-1.2000000000000028,-0.7000000000000002],[-1,-0.8999999999999995],[-0.8999999999999986,-1.0999999999999996],[0,0],[6.6,0],[0,0]],"v":[[23,0],[27.1,0.4],[31.1,1.5],[34.7,3.2],[38,5.6],[40.9,8.6],[39.9,9.5],[23,1.4],[23,0]],"o":[[1.3999999999999986,0],[1.3999999999999986,0.19999999999999996],[1.1999999999999957,0.5],[1.1999999999999957,0.6999999999999997],[1.1000000000000014,0.9000000000000004],[0,0],[-4.1,-5.1],[0,0],[0,0]]}],"h":1},{"t":66,"s":[{"c":true,"i":[[0,0],[-1.3999999999999986,-0.3],[-1.3000000000000007,-0.6000000000000001],[-1.1999999999999957,-0.7999999999999998],[-1.0999999999999943,-1.0999999999999996],[-0.9000000000000057,-1.3000000000000007],[0,0],[7.3,0],[0,0]],"v":[[23,0],[27.5,0.5],[31.8,1.8],[35.8,3.9],[39.3,6.8],[42.2,10.3],[41,11.1],[23,1.4],[23,0]],"o":[[1.5,0],[1.5,0.30000000000000004],[1.4000000000000021,0.5999999999999999],[1.2000000000000028,0.8000000000000003],[1.1000000000000014,1],[0,0],[-4,-6],[0,0],[0,0]]}],"h":1},{"t":67,"s":[{"c":true,"i":[[0,0],[-1.6000000000000014,-0.3],[-1.5000000000000036,-0.7000000000000002],[-1.2999999999999972,-1],[-1.1000000000000014,-1.2999999999999998],[-0.7999999999999972,-1.5],[0,0],[8,0],[0,0]],"v":[[23,0],[28,0.5],[32.7,2.1],[37,4.7],[40.6,8.1],[43.4,12.3],[42.2,13],[23,1.4],[23,0]],"o":[[1.6999999999999993,0],[1.6999999999999993,0.4],[1.5,0.6999999999999997],[1.2999999999999972,1],[1,1.3000000000000007],[0,0],[-3.7,-7.1],[0,0],[0,0]]}],"h":1},{"t":68,"s":[{"c":true,"i":[[0,0],[-1.8000000000000007,-0.49999999999999994],[-1.6000000000000014,-0.8],[-1.4000000000000057,-1.2000000000000002],[-1.1000000000000014,-1.6000000000000014],[-0.7000000000000028,-1.799999999999999],[0,0],[8.9,0],[0,0]],"v":[[23,0],[28.6,0.7],[33.7,2.6],[38.2,5.7],[41.9,9.8],[44.5,14.7],[43.2,15.2],[23,1.4],[23,0]],"o":[[1.8999999999999986,0],[1.7999999999999972,0.40000000000000013],[1.5999999999999943,0.8999999999999999],[1.3999999999999986,1.2000000000000002],[1,1.5],[0,0],[-3.2,-8.3],[0,0],[0,0]]}],"h":1},{"t":69,"s":[{"c":true,"i":[[0,0],[-1.9000000000000021,-0.5],[-1.7000000000000028,-1],[-1.3999999999999986,-1.4000000000000004],[-1,-1.799999999999999],[-0.5,-2.0999999999999996],[0,0],[9.9,0],[0,0]],"v":[[23,0],[29.1,0.8],[34.7,3.2],[39.4,6.9],[43,11.7],[45.3,17.5],[44,17.8],[23,1.4],[23,0]],"o":[[2.1000000000000014,0],[2,0.5999999999999999],[1.6999999999999957,1],[1.3999999999999986,1.4000000000000004],[1,1.8000000000000007],[0,0],[-2.4,-9.6],[0,0],[0,0]]}],"h":1},{"t":70,"s":[{"c":true,"i":[[0,0],[-2.099999999999998,-0.6],[-1.8000000000000043,-1.2999999999999998],[-1.3999999999999986,-1.700000000000001],[-0.8999999999999986,-2],[-0.29999999999999716,-2.3000000000000007],[0,0],[11,0],[0,0]],"v":[[23,0],[29.7,1],[35.7,3.9],[40.6,8.3],[44.1,13.9],[45.9,20.5],[44.5,20.6],[23,1.4],[23,0]],"o":[[2.3000000000000007,0],[2.1999999999999993,0.7],[1.8999999999999986,1.1999999999999997],[1.5,1.6999999999999993],[0.8999999999999986,2.0999999999999996],[0,0],[-1.2,-10.9],[0,0],[0,0]]}],"h":1},{"t":71,"s":[{"c":true,"i":[[0,0],[-2,-0.5],[-1.8000000000000043,-1.1],[-1.3999999999999986,-1.5],[0.2,-6.2],[0,0],[4.1,4.2],[5.8,0],[0,0]],"v":[[23,0],[29.1,0.8],[34.7,3.2],[39.5,7],[46,23.6],[44.6,23.6],[38.5,7.9],[23,1.4],[23,0]],"o":[[2.1000000000000014,0],[1.8999999999999986,0.5999999999999999],[1.6999999999999957,1],[4.3,4.5],[0,0],[0.2,-5.8],[-4.1,-4.2],[0,0],[0,0]]}],"h":1},{"t":72,"s":[{"c":true,"i":[[0,0],[-2.1000000000000014,-0.7],[-1.8999999999999986,-1.2999999999999998],[-1.5,-1.6999999999999993],[1.1,-6.7],[0,0],[4.1,4.9],[6.4,0],[0,0]],"v":[[23,0],[29.6,1],[35.6,3.8],[40.6,8.2],[45.7,26.9],[44.3,26.7],[39.5,9.1],[23,1.4],[23,0]],"o":[[2.3000000000000007,0],[2.099999999999998,0.6000000000000001],[1.7999999999999972,1.2000000000000002],[4.4,5.2],[0,0],[1.1,-6.3],[-4.1,-4.9],[0,0],[0,0]]}],"h":1},{"t":73,"s":[{"c":true,"i":[[0,0],[-2.3000000000000007,-0.7000000000000001],[-1.8999999999999986,-1.4000000000000004],[-1.3999999999999986,-2],[2.3,-7],[0,0],[4.1,5.6],[6.9,0],[0,0]],"v":[[23,0],[30.2,1.1],[36.5,4.4],[41.6,9.5],[44.9,30.1],[43.6,29.7],[40.5,10.3],[23,1.4],[23,0]],"o":[[2.5,0],[2.1999999999999993,0.7999999999999998],[1.8999999999999986,1.3999999999999995],[4.3,6],[0,0],[2.1,-6.6],[-4.1,-5.6],[0,0],[0,0]]}],"h":1},{"t":74,"s":[{"c":true,"i":[[0,0],[-4.2,-6.7],[-0.5,-2.5],[0.30000000000000426,-2.599999999999998],[1.1999999999999957,-2.400000000000002],[0,0],[3.9,6.3],[7.5,0],[0,0]],"v":[[23,0],[42.5,10.8],[45.4,18],[45.8,25.7],[43.6,33.1],[42.4,32.5],[41.4,11.6],[23,1.4],[23,0]],"o":[[7.9,0],[1.3999999999999986,2.1999999999999993],[0.6000000000000014,2.5],[-0.29999999999999716,2.5],[0,0],[3.3,-6.7],[-3.9,-6.3],[0,0],[0,0]]}],"h":1},{"t":75,"s":[{"c":true,"i":[[0,0],[-4,-7.5],[-0.29999999999999716,-2.700000000000003],[0.6000000000000014,-2.6999999999999993],[1.6000000000000014,-2.299999999999997],[0,0],[3.7,7.1],[8,0],[0,0]],"v":[[23,0],[43.3,12.2],[45.8,20.1],[45.4,28.3],[42,35.9],[40.9,35.2],[42.1,12.9],[23,1.4],[23,0]],"o":[[8.5,0],[1.3000000000000043,2.5],[0.30000000000000426,2.799999999999997],[-0.6999999999999957,2.6999999999999993],[0,0],[4.5,-6.6],[-3.7,-7.1],[0,0],[0,0]]}],"h":1},{"t":76,"s":[{"c":true,"i":[[0,0],[-2.6999999999999993,-1.1],[-2.1000000000000014,-2.0999999999999996],[-1.2000000000000028,-2.799999999999999],[6.1,-6.7],[0,0],[3.5,7.8],[8.5,0],[0,0]],"v":[[23,0],[31.7,1.7],[38.9,6.5],[44,13.7],[40.1,38.4],[39.1,37.5],[42.8,14.2],[23,1.4],[23,0]],"o":[[3,0],[2.6999999999999993,1.0999999999999999],[2.1000000000000014,2],[3.7,8.3],[0,0],[5.7,-6.3],[-3.5,-7.8],[0,0],[0,0]]}],"h":1},{"t":77,"s":[{"c":true,"i":[[0,0],[-2.8000000000000007,-1.2],[-2.200000000000003,-2.3],[-1.1000000000000014,-3],[7.3,-6.2],[0,0],[3.1,8.5],[9.1,0],[0,0]],"v":[[23,0],[32.1,1.9],[39.7,7.2],[44.6,15.1],[37.9,40.5],[37,39.5],[43.3,15.5],[23,1.4],[23,0]],"o":[[3.1999999999999993,0],[2.8999999999999986,1.3000000000000003],[2.0999999999999943,2.2],[3.3,9],[0,0],[6.9,-5.9],[-3.1,-8.5],[0,0],[0,0]]}],"h":1},{"t":78,"s":[{"c":true,"i":[[0,0],[-2.9,-9.8],[0.5,-3.1999999999999993],[1.7000000000000028,-2.799999999999997],[2.799999999999997,-1.8999999999999986],[0,0],[2.7,9.2],[9.6,0],[0,0]],"v":[[23,0],[45,16.4],[45.7,26.2],[42.5,35.3],[35.6,42.3],[34.8,41.1],[43.7,16.8],[23,1.4],[23,0]],"o":[[10.2,0],[1,3.3000000000000007],[-0.4000000000000057,3.1999999999999993],[-1.7999999999999972,2.700000000000003],[0,0],[8,-5.2],[-2.7,-9.2],[0,0],[0,0]]}],"h":1},{"t":79,"s":[{"c":true,"i":[[0,0],[-3,-1.4999999999999998],[-2.1000000000000014,-2.6999999999999993],[-0.7999999999999972,-3.5],[9.6,-4.7],[0,0],[2.3,9.8],[10.1,0],[0,0]],"v":[[23,0],[33,2.3],[40.9,8.6],[45.4,17.8],[33.2,43.6],[32.5,42.4],[44.1,18.1],[23,1.4],[23,0]],"o":[[3.6000000000000014,0],[3.1000000000000014,1.5],[2.1000000000000014,2.5999999999999996],[2.4,10.4],[0,0],[9,-4.4],[-2.3,-9.8],[0,0],[0,0]]}],"h":1},{"t":80,"s":[{"c":true,"i":[[0,0],[-3.099999999999998,-1.6],[-2.200000000000003,-2.9000000000000004],[-0.6000000000000014,-3.700000000000001],[10.5,-3.8],[0,0],[1.8,10.4],[10.5,0],[0,0]],"v":[[23,0],[33.4,2.5],[41.5,9.3],[45.7,19.1],[30.7,44.7],[30.3,43.4],[44.3,19.3],[23,1.4],[23,0]],"o":[[3.6999999999999993,0],[3.200000000000003,1.5999999999999996],[2.1000000000000014,2.799999999999999],[1.9,11],[0,0],[9.9,-3.5],[-1.8,-10.4],[0,0],[0,0]]}],"h":1},{"t":81,"s":[{"c":true,"i":[[0,0],[-1.4,-11.6],[1.3000000000000043,-3.5],[2.799999999999997,-2.5],[3.8000000000000007,-0.8999999999999986],[0,0],[1.3,10.9],[11,0],[0,0]],"v":[[23,0],[45.8,20.3],[44.4,31.4],[38.2,40.3],[28.3,45.4],[28,44],[44.5,20.5],[23,1.4],[23,0]],"o":[[11.7,0],[0.5,3.8999999999999986],[-1.2999999999999972,3.3999999999999986],[-2.700000000000003,2.4000000000000057],[0,0],[10.7,-2.5],[-1.3,-10.9],[0,0],[0,0]]}],"h":1},{"t":82,"s":[{"c":true,"i":[[0,0],[-3.400000000000002,-1.9],[-2.1000000000000014,-3.0999999999999996],[-0.29999999999999716,-4],[12,-1.6],[0,0],[0.7,11.4],[11.4,0],[0,0]],"v":[[23,0],[34.2,2.9],[42.4,10.5],[46,21.5],[26,45.8],[25.8,44.4],[44.6,21.6],[23,1.4],[23,0]],"o":[[4,0],[3.299999999999997,1.8000000000000003],[2,3.1999999999999993],[0.8,12.1],[0,0],[11.3,-1.5],[-0.7,-11.4],[0,0],[0,0]]}],"h":1},{"t":83,"s":[{"c":true,"i":[[0,0],[-0.2,-12.6],[1.8999999999999986,-3.400000000000002],[3.3999999999999986,-2.1000000000000014],[4.199999999999999,-0.10000000000000142],[0,0],[0.2,11.8],[11.8,0],[0,0]],"v":[[23,0],[46,22.6],[43.1,34.2],[35.1,42.6],[23.7,46],[23.7,44.6],[44.6,22.7],[23,1.4],[23,0]],"o":[[12.6,0],[0.10000000000000142,4.199999999999999],[-1.8999999999999986,3.3999999999999986],[-3.3000000000000007,2],[0,0],[11.8,-0.4],[-0.2,-11.8],[0,0],[0,0]]}],"h":1},{"t":84,"s":[{"c":true,"i":[[0,0],[-4,-7.3],[4.5,-7.1],[8.4,0.5],[0,0],[-4.2,6.7],[3.8,6.9],[7.9,0],[0,0]],"v":[[23,0],[43.1,11.9],[42.4,35.3],[21.6,46],[21.7,44.6],[41.3,34.5],[41.9,12.6],[23,1.4],[23,0]],"o":[[8.4,0],[4,7.3],[-4.5,7.1],[0,0],[7.9,0.5],[4.2,-6.7],[-3.8,-6.9],[0,0],[0,0]]}],"h":1},{"t":85,"s":[{"c":true,"i":[[0,0],[-3.9,-7.7],[5,-7],[8.5,1.3],[0,0],[-4.7,6.6],[3.7,7.2],[8.1,0],[0,0]],"v":[[23,0],[43.5,12.5],[41.7,36.4],[19.6,45.8],[19.8,44.4],[40.6,35.6],[42.2,13.1],[23,1.4],[23,0]],"o":[[8.6,0],[3.9,7.7],[-5,7],[0,0],[8,1.2],[4.7,-6.6],[-3.7,-7.2],[0,0],[0,0]]}],"h":1},{"t":86,"s":[{"c":true,"i":[[0,0],[-3.8,-8],[5.5,-6.9],[8.6,2],[0,0],[-5.2,6.5],[3.6,7.5],[8.3,0],[0,0]],"v":[[23,0],[43.7,13.1],[40.9,37.4],[17.8,45.4],[18.1,44.1],[39.9,36.5],[42.5,13.6],[23,1.4],[23,0]],"o":[[8.8,0],[3.8,8],[-5.5,6.9],[0,0],[8.1,1.9],[5.2,-6.5],[-3.6,-7.5],[0,0],[0,0]]}],"h":1},{"t":87,"s":[{"c":true,"i":[[0,0],[-3.7,-8.3],[6,-6.8],[8.6,2.7],[0,0],[-5.7,6.4],[3.5,7.8],[8.5,0],[0,0]],"v":[[23,0],[44,13.6],[40.2,38.3],[16.1,44.9],[16.5,43.6],[39.1,37.4],[42.7,14.2],[23,1.4],[23,0]],"o":[[9.1,0],[3.7,8.3],[-6,6.8],[0,0],[8.1,2.6],[5.7,-6.4],[-3.5,-7.8],[0,0],[0,0]]}],"h":1},{"t":88,"s":[{"c":true,"i":[[0,0],[-3.6,-8.5],[6.5,-6.6],[8.6,3.4],[0,0],[-6.1,6.2],[3.4,8],[8.7,0],[0,0]],"v":[[23,0],[44.2,14.1],[39.4,39.1],[14.5,44.4],[15,43.1],[38.4,38.1],[42.9,14.6],[23,1.4],[23,0]],"o":[[9.3,0],[3.6,8.5],[-6.5,6.6],[0,0],[8.1,3.2],[6.1,-6.2],[-3.4,-8],[0,0],[0,0]]}],"h":1},{"t":89,"s":[{"c":true,"i":[[0,0],[-3.5,-8.8],[6.9,-6.4],[8.5,4.1],[0,0],[-6.5,6.1],[3.3,8.3],[8.9,0],[0,0]],"v":[[23,0],[44.4,14.6],[38.7,39.8],[13,43.7],[13.6,42.5],[37.7,38.8],[43.1,15.1],[23,1.4],[23,0]],"o":[[9.5,0],[3.5,8.8],[-6.9,6.4],[0,0],[8,3.8],[6.5,-6.1],[-3.3,-8.3],[0,0],[0,0]]}],"h":1},{"t":90,"s":[{"c":true,"i":[[0,0],[-3.3,-9],[7.3,-6.3],[8.4,4.7],[0,0],[-6.9,5.9],[3.1,8.5],[9.1,0],[0,0]],"v":[[23,0],[44.6,15],[37.9,40.5],[11.7,43.1],[12.4,41.8],[37,39.5],[43.3,15.5],[23,1.4],[23,0]],"o":[[9.6,0],[3.3,9],[-7.3,6.3],[0,0],[7.9,4.4],[6.9,-5.9],[-3.1,-8.5],[0,0],[0,0]]}],"h":1},{"t":91,"s":[{"c":true,"i":[[0,0],[-3.2,-9.3],[7.7,-6.1],[8.2,5.3],[0,0],[-7.3,5.7],[3,8.7],[9.2,0],[0,0]],"v":[[23,0],[44.7,15.5],[37.2,41.1],[10.5,42.3],[11.3,41.2],[36.4,40],[43.4,15.9],[23,1.4],[23,0]],"o":[[9.8,0],[3.2,9.3],[-7.7,6.1],[0,0],[7.7,5],[7.3,-5.7],[-3,-8.7],[0,0],[0,0]]}],"h":1},{"t":92,"s":[{"c":true,"i":[[0,0],[-3.1,-9.5],[8.1,-5.9],[8.1,5.9],[0,0],[-7.6,5.5],[2.9,8.9],[9.4,0],[0,0]],"v":[[23,0],[44.9,15.9],[36.5,41.6],[9.5,41.6],[10.3,40.5],[35.7,40.5],[43.6,16.3],[23,1.4],[23,0]],"o":[[10,0],[3.1,9.5],[-8.1,5.9],[0,0],[7.6,5.5],[7.6,-5.5],[-2.9,-8.9],[0,0],[0,0]]}],"h":1},{"t":93,"s":[{"c":true,"i":[[0,0],[-3,-9.7],[8.4,-5.6],[7.9,6.4],[0,0],[-7.9,5.3],[2.8,9.1],[9.5,0],[0,0]],"v":[[23,0],[45,16.3],[35.8,42.1],[8.5,40.8],[9.4,39.8],[35.1,40.9],[43.7,16.7],[23,1.4],[23,0]],"o":[[10.1,0],[3,9.7],[-8.4,5.6],[0,0],[7.4,6],[7.9,-5.3],[-2.8,-9.1],[0,0],[0,0]]}],"h":1},{"t":94,"s":[{"c":true,"i":[[0,0],[-2.8,-9.9],[8.7,-5.4],[7.6,6.9],[0,0],[-8.2,5.1],[2.7,9.3],[9.6,0],[0,0]],"v":[[23,0],[45.1,16.7],[35.2,42.5],[7.6,40.1],[8.5,39.1],[34.5,41.3],[43.8,17],[23,1.4],[23,0]],"o":[[10.3,0],[2.8,9.9],[-8.7,5.4],[0,0],[7.2,6.5],[8.2,-5.1],[-2.7,-9.3],[0,0],[0,0]]}],"h":1},{"t":95,"s":[{"c":true,"i":[[0,0],[-2.7,-10],[9,-5.2],[7.4,7.3],[0,0],[-8.4,4.9],[2.5,9.4],[9.8,0],[0,0]],"v":[[23,0],[45.2,17],[34.6,42.9],[6.8,39.4],[7.8,38.4],[33.9,41.7],[43.9,17.4],[23,1.4],[23,0]],"o":[[10.4,0],[2.7,10],[-9,5.2],[0,0],[6.9,6.9],[8.4,-4.9],[-2.5,-9.4],[0,0],[0,0]]}],"h":1},{"t":96,"s":[{"c":true,"i":[[0,0],[-2.6,-10.2],[9.2,-5],[7.1,7.7],[0,0],[-8.7,4.7],[2.4,9.6],[9.9,0],[0,0]],"v":[[23,0],[45.3,17.3],[34,43.2],[6.1,38.6],[7.1,37.7],[33.3,42],[44,17.7],[23,1.4],[23,0]],"o":[[10.5,0],[2.6,10.2],[-9.2,5],[0,0],[6.7,7.3],[8.7,-4.7],[-2.4,-9.6],[0,0],[0,0]]}],"h":1},{"t":97,"s":[{"c":true,"i":[[0,0],[-2.5,-10.3],[9.5,-4.8],[6.9,8.1],[0,0],[-8.9,4.5],[2.3,9.7],[10,0],[0,0]],"v":[[23,0],[45.4,17.6],[33.4,43.5],[5.5,37.9],[6.5,37],[32.8,42.3],[44,18],[23,1.4],[23,0]],"o":[[10.6,0],[2.5,10.3],[-9.5,4.8],[0,0],[6.5,7.6],[8.9,-4.5],[-2.3,-9.7],[0,0],[0,0]]}],"h":1},{"t":98,"s":[{"c":true,"i":[[0,0],[-2.4,-10.5],[9.7,-4.6],[6.6,8.4],[0,0],[-9.1,4.3],[2.2,9.9],[10.1,0],[0,0]],"v":[[23,0],[45.4,17.9],[32.9,43.8],[4.9,37.2],[6,36.4],[32.3,42.5],[44.1,18.2],[23,1.4],[23,0]],"o":[[10.7,0],[2.4,10.5],[-9.7,4.6],[0,0],[6.3,7.9],[9.1,-4.3],[-2.2,-9.9],[0,0],[0,0]]}],"h":1},{"t":99,"s":[{"c":true,"i":[[0,0],[-2.3,-10.6],[9.9,-4.4],[6.4,8.8],[0,0],[-9.3,4.2],[2.1,10],[10.2,0],[0,0]],"v":[[23,0],[45.5,18.2],[32.4,44],[4.4,36.6],[5.5,35.8],[31.8,42.7],[44.1,18.5],[23,1.4],[23,0]],"o":[[10.9,0],[2.3,10.6],[-9.9,4.4],[0,0],[6,8.2],[9.3,-4.2],[-2.1,-10],[0,0],[0,0]]}],"h":1},{"t":100,"s":[{"c":true,"i":[[0,0],[-2.2,-10.7],[10.1,-4.2],[6.2,9.1],[0,0],[-9.5,4],[2,10.1],[10.3,0],[0,0]],"v":[[23,0],[45.5,18.4],[31.9,44.2],[4,35.9],[5.1,35.2],[31.4,42.9],[44.2,18.7],[23,1.4],[23,0]],"o":[[10.9,0],[2.2,10.7],[-10.1,4.2],[0,0],[5.8,8.5],[9.5,-4],[-2,-10.1],[0,0],[0,0]]}],"h":1},{"t":101,"s":[{"c":true,"i":[[0,0],[-2.1,-10.8],[10.3,-4.1],[5.9,9.3],[0,0],[-9.6,3.8],[1.9,10.2],[10.4,0],[0,0]],"v":[[23,0],[45.6,18.7],[31.5,44.4],[3.6,35.3],[4.8,34.6],[31,43.1],[44.2,18.9],[23,1.4],[23,0]],"o":[[11,0],[2.1,10.8],[-10.3,4.1],[0,0],[5.6,8.8],[9.6,-3.8],[-1.9,-10.2],[0,0],[0,0]]}],"h":1},{"t":102,"s":[{"c":true,"i":[[0,0],[-2,-10.9],[10.4,-3.9],[5.7,9.6],[0,0],[-9.8,3.7],[1.9,10.3],[10.5,0],[0,0]],"v":[[23,0],[45.6,18.9],[31.1,44.5],[3.2,34.8],[4.4,34.1],[30.6,43.2],[44.3,19.1],[23,1.4],[23,0]],"o":[[11.1,0],[2,10.9],[-10.4,3.9],[0,0],[5.4,9],[9.8,-3.7],[-1.9,-10.3],[0,0],[0,0]]}],"h":1},{"t":103,"s":[{"c":true,"i":[[0,0],[-1.9,-11],[10.6,-3.7],[5.5,9.8],[0,0],[-9.9,3.5],[1.8,10.4],[10.5,0],[0,0]],"v":[[23,0],[45.7,19.1],[30.7,44.7],[2.9,34.2],[4.1,33.6],[30.2,43.4],[44.3,19.3],[23,1.4],[23,0]],"o":[[11.2,0],[1.9,11],[-10.6,3.7],[0,0],[5.1,9.2],[9.9,-3.5],[-1.8,-10.4],[0,0],[0,0]]}],"h":1},{"t":104,"s":[{"c":true,"i":[[0,0],[-1.8,-11.1],[10.7,-3.6],[5.3,10],[0,0],[-10,3.4],[1.7,10.5],[10.6,0],[0,0]],"v":[[23,0],[45.7,19.3],[30.3,44.8],[2.7,33.7],[3.9,33.1],[29.9,43.5],[44.3,19.5],[23,1.4],[23,0]],"o":[[11.3,0],[1.8,11.1],[-10.7,3.6],[0,0],[4.9,9.4],[10,-3.4],[-1.7,-10.5],[0,0],[0,0]]}],"h":1},{"t":105,"s":[{"c":true,"i":[[0,0],[-1.7,-11.2],[10.8,-3.4],[5.1,10.1],[0,0],[-10.2,3.2],[1.6,10.5],[10.7,0],[0,0]],"v":[[23,0],[45.7,19.5],[30,44.9],[2.4,33.3],[3.7,32.7],[29.6,43.6],[44.4,19.7],[23,1.4],[23,0]],"o":[[11.3,0],[1.7,11.2],[-10.8,3.4],[0,0],[4.8,9.5],[10.2,-3.2],[-1.6,-10.5],[0,0],[0,0]]}],"h":1},{"t":106,"s":[{"c":true,"i":[[0,0],[-1.7,-11.3],[10.9,-3.3],[4.9,10.3],[0,0],[-10.3,3.1],[1.6,10.6],[10.7,0],[0,0]],"v":[[23,0],[45.8,19.6],[29.7,45],[2.2,32.8],[3.5,32.3],[29.3,43.7],[44.4,19.8],[23,1.4],[23,0]],"o":[[11.4,0],[1.7,11.3],[-10.9,3.3],[0,0],[4.6,9.7],[10.3,-3.1],[-1.6,-10.6],[0,0],[0,0]]}],"h":1},{"t":107,"s":[{"c":true,"i":[[0,0],[-1.6,-11.3],[11,-3.2],[4.7,10.4],[0,0],[-10.3,3],[1.5,10.7],[10.8,0],[0,0]],"v":[[23,0],[45.8,19.8],[29.4,45.1],[2,32.4],[3.3,31.9],[29,43.8],[44.4,20],[23,1.4],[23,0]],"o":[[11.5,0],[1.6,11.3],[-11,3.2],[0,0],[4.4,9.8],[10.3,-3],[-1.5,-10.7],[0,0],[0,0]]}],"h":1},{"t":108,"s":[{"c":true,"i":[[0,0],[-1.6,-11.4],[11.1,-3.1],[4.5,10.6],[0,0],[-10.4,2.9],[1.5,10.7],[10.8,0],[0,0]],"v":[[23,0],[45.8,19.9],[29.2,45.2],[1.9,32.1],[3.1,31.5],[28.8,43.8],[44.4,20.1],[23,1.4],[23,0]],"o":[[11.5,0],[1.6,11.4],[-11.1,3.1],[0,0],[4.3,9.9],[10.4,-2.9],[-1.5,-10.7],[0,0],[0,0]]}],"h":1},{"t":109,"s":[{"c":true,"i":[[0,0],[-1.5,-11.5],[11.2,-3],[4.4,10.7],[0,0],[-10.5,2.8],[1.4,10.8],[10.9,0],[0,0]],"v":[[23,0],[45.8,20],[28.9,45.2],[1.7,31.8],[3,31.2],[28.6,43.9],[44.4,20.2],[23,1.4],[23,0]],"o":[[11.5,0],[1.5,11.5],[-11.2,3],[0,0],[4.1,10],[10.5,-2.8],[-1.4,-10.8],[0,0],[0,0]]}],"h":1},{"t":110,"s":[{"c":true,"i":[[0,0],[-1.5,-11.5],[11.2,-2.9],[4.3,10.8],[0,0],[-10.6,2.7],[1.4,10.8],[10.9,0],[0,0]],"v":[[23,0],[45.8,20.1],[28.7,45.3],[1.6,31.5],[2.9,30.9],[28.4,43.9],[44.4,20.3],[23,1.4],[23,0]],"o":[[11.6,0],[1.5,11.5],[-11.2,2.9],[0,0],[4,10.1],[10.6,-2.7],[-1.4,-10.8],[0,0],[0,0]]}],"h":1},{"t":111,"s":[{"c":true,"i":[[0,0],[-1.4,-11.5],[11.3,-2.8],[4.1,10.9],[0,0],[-10.6,2.6],[1.3,10.8],[10.9,0],[0,0]],"v":[[23,0],[45.8,20.2],[28.5,45.3],[1.5,31.2],[2.8,30.7],[28.2,44],[44.5,20.4],[23,1.4],[23,0]],"o":[[11.6,0],[1.4,11.5],[-11.3,2.8],[0,0],[3.9,10.2],[10.6,-2.6],[-1.3,-10.8],[0,0],[0,0]]}],"h":1},{"t":112,"s":[{"c":true,"i":[[0,0],[-1.4,-11.6],[11.3,-2.7],[4,10.9],[0,0],[-10.7,2.6],[1.3,10.9],[11,0],[0,0]],"v":[[23,0],[45.8,20.3],[28.4,45.4],[1.4,31],[2.7,30.5],[28,44],[44.5,20.5],[23,1.4],[23,0]],"o":[[11.7,0],[1.4,11.6],[-11.3,2.7],[0,0],[3.8,10.3],[10.7,-2.6],[-1.3,-10.9],[0,0],[0,0]]}],"h":1},{"t":113,"s":[{"c":true,"i":[[0,0],[-1.3,-11.6],[11.4,-2.7],[3.9,11],[0,0],[-10.7,2.5],[1.3,10.9],[11,0],[0,0]],"v":[[23,0],[45.8,20.4],[28.2,45.4],[1.3,30.8],[2.6,30.3],[27.9,44.1],[44.5,20.5],[23,1.4],[23,0]],"o":[[11.7,0],[1.3,11.6],[-11.4,2.7],[0,0],[3.7,10.3],[10.7,-2.5],[-1.3,-10.9],[0,0],[0,0]]}],"h":1},{"t":114,"s":[{"c":true,"i":[[0,0],[-1.3,-11.6],[11.4,-2.6],[3.9,11.1],[0,0],[-10.7,2.4],[1.2,10.9],[11,0],[0,0]],"v":[[23,0],[45.9,20.4],[28.1,45.4],[1.3,30.6],[2.6,30.1],[27.8,44.1],[44.5,20.6],[23,1.4],[23,0]],"o":[[11.7,0],[1.3,11.6],[-11.4,2.6],[0,0],[3.6,10.4],[10.7,-2.4],[-1.2,-10.9],[0,0],[0,0]]}],"h":1},{"t":115,"s":[{"c":true,"i":[[0,0],[-1.3,-11.7],[11.4,-2.6],[3.8,11.1],[0,0],[-10.8,2.4],[1.2,11],[11,0],[0,0]],"v":[[23,0],[45.9,20.5],[28,45.4],[1.2,30.4],[2.5,30],[27.7,44.1],[44.5,20.6],[23,1.4],[23,0]],"o":[[11.7,0],[1.3,11.7],[-11.4,2.6],[0,0],[3.6,10.4],[10.8,-2.4],[-1.2,-11],[0,0],[0,0]]}],"h":1},{"t":116,"s":[{"c":true,"i":[[0,0],[-1.3,-11.7],[11.5,-2.5],[3.7,11.1],[0,0],[-10.8,2.4],[1.2,11],[11,0],[0,0]],"v":[[23,0],[45.9,20.5],[27.9,45.5],[1.2,30.3],[2.5,29.9],[27.6,44.1],[44.5,20.7],[23,1.4],[23,0]],"o":[[11.7,0],[1.3,11.7],[-11.5,2.5],[0,0],[3.5,10.5],[10.8,-2.4],[-1.2,-11],[0,0],[0,0]]}],"h":1},{"t":117,"s":[{"c":true,"i":[[0,0],[-1.2,-11.7],[11.5,-2.5],[3.7,11.2],[0,0],[-10.8,2.3],[1.2,11],[11.1,0],[0,0]],"v":[[23,0],[45.9,20.6],[27.9,45.5],[1.2,30.2],[2.5,29.8],[27.6,44.1],[44.5,20.7],[23,1.4],[23,0]],"o":[[11.8,0],[1.2,11.7],[-11.5,2.5],[0,0],[3.5,10.5],[10.8,-2.3],[-1.2,-11],[0,0],[0,0]]}],"h":1},{"t":118,"s":[{"c":true,"i":[[0,0],[-1.2,-11.7],[11.5,-2.5],[3.7,11.2],[0,0],[-10.8,2.3],[1.2,11],[11.1,0],[0,0]],"v":[[23,0],[45.9,20.6],[27.8,45.5],[1.1,30.2],[2.5,29.7],[27.5,44.1],[44.5,20.7],[23,1.4],[23,0]],"o":[[11.8,0],[1.2,11.7],[-11.5,2.5],[0,0],[3.4,10.5],[10.8,-2.3],[-1.2,-11],[0,0],[0,0]]}],"h":1},{"t":119,"s":[{"c":true,"i":[[0,0],[-1.2,-11.7],[11.5,-2.5],[3.6,11.2],[0,0],[-10.8,2.3],[1.2,11],[11.1,0],[0,0]],"v":[[23,0],[45.9,20.6],[27.8,45.5],[1.1,30.1],[2.4,29.7],[27.5,44.1],[44.5,20.7],[23,1.4],[23,0]],"o":[[11.8,0],[1.2,11.7],[-11.5,2.5],[0,0],[3.4,10.5],[10.8,-2.3],[-1.2,-11],[0,0],[0,0]]}],"h":1},{"t":120,"s":[{"c":true,"i":[[0,0],[-1.2,-11.7],[11.5,-2.4],[3.6,11.2],[0,0],[-10.8,2.3],[1.2,11],[11.1,0],[0,0]],"v":[[23,0],[45.9,20.6],[27.8,45.5],[1.1,30.1],[2.4,29.7],[27.5,44.1],[44.5,20.7],[23,1.4],[23,0]],"o":[[11.8,0],[1.2,11.7],[-11.5,2.4],[0,0],[3.4,10.5],[10.8,-2.3],[-1.2,-11],[0,0],[0,0]]}],"h":1},{"t":121,"s":[{"c":true,"i":[[0,0],[-0.8,-11.6],[11.5,-2.2],[3.5,11.1],[0,0],[-10.8,2],[0.7,10.9],[10.9,0.5],[0,0]],"v":[[24.1,0],[45.9,21.4],[27.3,45.6],[1.1,29.9],[2.4,29.5],[27,44.2],[44.6,21.5],[24.1,1.4],[24.1,0]],"o":[[11.6,0.6],[0.8,11.6],[-11.5,2.2],[0,0],[3.3,10.5],[10.8,-2],[-0.7,-10.9],[0,0],[0,0]]}],"h":1},{"t":122,"s":[{"c":true,"i":[[0,0],[-0.2,-11.5],[11.4,-1.8],[3.3,11],[0,0],[-10.7,1.6],[0.2,10.8],[10.7,1.3],[0,0]],"v":[[25.8,0.2],[46,22.6],[26.5,45.7],[1,29.6],[2.3,29.2],[26.3,44.4],[44.6,22.6],[25.6,1.5],[25.8,0.2]],"o":[[11.4,1.4],[0.2,11.5],[-11.4,1.8],[0,0],[3.1,10.3],[10.7,-1.6],[-0.2,-10.8],[0,0],[0,0]]}],"h":1},{"t":123,"s":[{"c":true,"i":[[0,0],[0.6,-11.3],[11.2,-1.2],[3,10.9],[0,0],[-10.5,1.2],[-0.6,10.6],[10.4,2.3],[0,0]],"v":[[27.9,0.5],[46,24.2],[25.5,45.9],[0.8,29.2],[2.2,28.8],[25.4,44.5],[44.6,24.1],[27.6,1.9],[27.9,0.5]],"o":[[11,2.4],[-0.6,11.3],[-11.2,1.2],[0,0],[2.8,10.2],[10.5,-1.2],[0.6,-10.6],[0,0],[0,0]]}],"h":1},{"t":124,"s":[{"c":true,"i":[[0,0],[1.5,-10.9],[11,-0.6],[2.7,10.7],[0,0],[-10.3,0.6],[-1.4,10.2],[9.8,3.4],[0,0]],"v":[[30.5,1.3],[45.8,26.2],[24.2,46],[0.7,28.6],[2,28.3],[24.2,44.6],[44.4,26],[30.1,2.6],[30.5,1.3]],"o":[[10.4,3.6],[-1.5,10.9],[-11,0.6],[0,0],[2.5,10],[10.3,-0.6],[1.4,-10.2],[0,0],[0,0]]}],"h":1},{"t":125,"s":[{"c":true,"i":[[0,0],[2.6,-10.3],[10.7,0.1],[2.3,10.4],[0,0],[-10,-0.1],[-2.4,9.7],[8.9,4.6],[0,0]],"v":[[33.6,2.6],[45.3,28.6],[22.7,46],[0.5,28],[1.9,27.7],[22.7,44.6],[44,28.3],[32.9,3.8],[33.6,2.6]],"o":[[9.5,4.9],[-2.6,10.3],[-10.7,-0.1],[0,0],[2.2,9.8],[10,0.1],[2.4,-9.7],[0,0],[0,0]]}],"h":1},{"t":126,"s":[{"c":true,"i":[[0,0],[3.7,-9.6],[10.2,0.9],[1.9,10.1],[0,0],[-9.6,-0.9],[-3.5,9],[7.7,5.8],[0,0]],"v":[[36.8,4.6],[44.5,31.3],[20.9,45.9],[0.4,27.2],[1.7,27],[21,44.5],[43.2,30.8],[36,5.7],[36.8,4.6]],"o":[[8.2,6.2],[-3.7,9.6],[-10.2,-0.9],[0,0],[1.8,9.5],[9.6,0.9],[3.5,-9],[0,0],[0,0]]}],"h":1},{"t":127,"s":[{"c":true,"i":[[0,0],[4.8,-8.6],[9.7,1.8],[1.4,9.7],[0,0],[-9.1,-1.7],[-4.5,8.1],[6.2,6.9],[0,0]],"v":[[40,7.5],[43.1,34.2],[18.9,45.6],[0.2,26.4],[1.6,26.2],[19.1,44.3],[41.9,33.5],[39,8.5],[40,7.5]],"o":[[6.6,7.3],[-4.8,8.6],[-9.7,-1.8],[0,0],[1.4,9.2],[9.1,1.7],[4.5,-8.1],[0,0],[0,0]]}],"h":1},{"t":128,"s":[{"c":true,"i":[[0,0],[5.7,-7.4],[9,2.6],[1,9.3],[0,0],[-8.5,-2.4],[-5.4,7],[4.5,7.6],[0,0]],"v":[[42.8,11.4],[41.2,37.1],[16.7,45.1],[0.1,25.4],[1.5,25.3],[17.1,43.8],[40.1,36.2],[41.6,12],[42.8,11.4]],"o":[[4.8,8.1],[-5.7,7.4],[-9,-2.6],[0,0],[0.9,8.8],[8.5,2.4],[5.4,-7],[0,0],[0,0]]}],"h":1},{"t":129,"s":[{"c":true,"i":[[0,0],[6.5,-6.1],[8.3,3.3],[0.6,8.9],[0,0],[-7.8,-3.1],[-6.1,5.7],[2.6,8],[0,0]],"v":[[44.9,15.9],[38.7,39.8],[14.5,44.4],[0,24.4],[1.4,24.4],[15,43.1],[37.8,38.8],[43.6,16.3],[44.9,15.9]],"o":[[2.7,8.5],[-6.5,6.1],[-8.3,-3.3],[0,0],[0.5,8.4],[7.8,3.1],[6.1,-5.7],[0,0],[0,0]]}],"h":1},{"t":130,"s":[{"c":true,"i":[[0,0],[7,-4.7],[7.5,3.9],[0.2,8.4],[0,0],[-7,-3.7],[-6.6,4.4],[0.7,7.9],[0,0]],"v":[[45.9,20.9],[35.8,42.1],[12.3,43.4],[0,23.4],[1.4,23.4],[13,42.2],[35,41],[44.5,21.1],[45.9,20.9]],"o":[[0.8,8.4],[-7,4.7],[-7.5,-3.9],[0,0],[0.1,7.9],[7,3.7],[6.6,-4.4],[0,0],[0,0]]}],"h":1},{"t":131,"s":[{"c":true,"i":[[0,0],[12.2,1],[3.200000000000001,2.1000000000000014],[1.7000000000000002,3.3999999999999986],[-0.1,4.100000000000001],[0,0],[-11.5,-0.9],[-1.5,11.4],[0,0]],"v":[[45.8,26.1],[21.2,45.9],[10.2,42.1],[2.7,33.7],[0,22.4],[1.4,22.4],[21.3,44.6],[44.4,25.9],[45.8,26.1]],"o":[[-1.6,12.1],[-4.099999999999998,-0.29999999999999716],[-3.1999999999999993,-2.200000000000003],[-1.8000000000000003,-3.400000000000002],[0,0],[-0.3,11.5],[11.5,0.9],[0,0],[0,0]]}],"h":1},{"t":132,"s":[{"c":true,"i":[[0,0],[11.2,2.4],[2.6999999999999993,2.299999999999997],[1.5,3.299999999999997],[-0.30000000000000004,3.8000000000000007],[0,0],[-10.5,-2.3],[-3.7,10.1],[0,0]],"v":[[44.6,31],[18.2,45.5],[8.4,40.7],[1.9,32.2],[0.1,21.4],[1.4,21.5],[18.4,44.1],[43.3,30.5],[44.6,31]],"o":[[-4,10.7],[-3.6999999999999993,-0.7999999999999972],[-2.8000000000000007,-2.3000000000000043],[-1.4,-3.3000000000000043],[0,0],[-0.8,10.7],[10.5,2.3],[0,0],[0,0]]}],"h":1},{"t":133,"s":[{"c":true,"i":[[0,0],[2.8999999999999986,-1.7999999999999972],[3.3999999999999986,-0.3999999999999986],[3.3999999999999986,1.1999999999999957],[-1.2,10.6],[0,0],[-9.5,-3.4],[-5.4,8.5],[0,0]],"v":[[42.4,35.3],[35,42.5],[25.5,45.9],[15.3,44.7],[0.1,20.4],[1.5,20.6],[15.8,43.4],[41.2,34.6],[42.4,35.3]],"o":[[-1.8999999999999986,3],[-2.8999999999999986,1.7999999999999972],[-3.3000000000000007,0.3999999999999986],[-10.1,-3.6],[0,0],[-1.1,10],[9.5,3.4],[0,0],[0,0]]}],"h":1},{"t":134,"s":[{"c":true,"i":[[0,0],[3,-1.1999999999999957],[3.1999999999999993,0.10000000000000142],[3,1.5],[-1.5,9.9],[0,0],[-8.4,-4.2],[-6.6,6.8],[0,0]],"v":[[39.5,39],[31.4,44.4],[22.1,46],[12.7,43.6],[0.3,19.5],[1.6,19.7],[13.4,42.4],[38.5,38],[39.5,39]],"o":[[-2.299999999999997,2.3999999999999986],[-2.8999999999999986,1.2000000000000028],[-3.200000000000003,-0.10000000000000142],[-9,-4.5],[0,0],[-1.4,9.3],[8.4,4.2],[0,0],[0,0]]}],"h":1},{"t":135,"s":[{"c":true,"i":[[0,0],[3,-0.6000000000000014],[3,0.5],[2.5999999999999996,1.7000000000000028],[-1.8,9.2],[0,0],[-7.4,-4.8],[-7.2,5],[0,0]],"v":[[36.2,41.9],[27.8,45.5],[18.9,45.7],[10.4,42.3],[0.4,18.6],[1.8,18.9],[11.2,41.1],[35.4,40.7],[36.2,41.9]],"o":[[-2.6000000000000014,1.8000000000000043],[-2.900000000000002,0.7000000000000028],[-2.9999999999999982,-0.6000000000000014],[-7.9,-5.1],[0,0],[-1.7,8.6],[7.4,4.8],[0,0],[0,0]]}],"h":1},{"t":136,"s":[{"c":true,"i":[[0,0],[2.8000000000000007,-0.10000000000000142],[2.700000000000001,0.8999999999999986],[2.299999999999999,1.9000000000000057],[-2,8.5],[0,0],[-6.4,-5.2],[-7.5,3.4],[0,0]],"v":[[32.5,43.9],[24.2,45.9],[15.9,44.9],[8.4,40.8],[0.6,17.8],[1.9,18.1],[9.3,39.7],[32,42.7],[32.5,43.9]],"o":[[-2.6999999999999993,1.2000000000000028],[-2.8000000000000007,0.20000000000000284],[-2.700000000000001,-0.8999999999999986],[-6.8,-5.6],[0,0],[-1.9,8],[6.4,5.2],[0,0],[0,0]]}],"h":1},{"t":137,"s":[{"c":true,"i":[[0,0],[2.700000000000003,0.20000000000000284],[2.3999999999999986,1.1000000000000014],[1.8999999999999995,1.8999999999999986],[-2.1,7.9],[0,0],[-5.4,-5.5],[-7.5,2],[0,0]],"v":[[28.9,45.2],[20.9,45.9],[13.3,43.8],[6.7,39.2],[0.8,17],[2.1,17.4],[7.7,38.3],[28.5,43.9],[28.9,45.2]],"o":[[-2.599999999999998,0.6999999999999957],[-2.599999999999998,-0.29999999999999716],[-2.4000000000000004,-1.0999999999999943],[-5.8,-5.8],[0,0],[-2,7.4],[5.4,5.5],[0,0],[0,0]]}],"h":1},{"t":138,"s":[{"c":true,"i":[[0,0],[2.3999999999999986,0.6000000000000014],[2.0999999999999996,1.2999999999999972],[1.5999999999999996,2],[-2.2,7.4],[0,0],[-4.6,-5.6],[-7.2,0.7],[0,0]],"v":[[25.3,45.9],[17.8,45.4],[10.9,42.6],[5.2,37.6],[1,16.3],[2.3,16.7],[6.3,36.7],[25.2,44.5],[25.3,45.9]],"o":[[-2.6000000000000014,0.30000000000000426],[-2.5,-0.6000000000000014],[-2.0999999999999996,-1.3999999999999986],[-4.9,-5.9],[0,0],[-2.1,6.9],[4.6,5.6],[0,0],[0,0]]}],"h":1},{"t":139,"s":[{"c":true,"i":[[0,0],[2.1999999999999993,0.7999999999999972],[1.799999999999999,1.3999999999999986],[1.4000000000000004,2],[-2.3,6.8],[0,0],[-3.8,-5.6],[-6.8,-0.3],[0,0]],"v":[[21.9,46],[15,44.6],[8.9,41.2],[4,36],[1.2,15.7],[2.5,16.1],[5.2,35.2],[22,44.6],[21.9,46]],"o":[[-2.3999999999999986,-0.10000000000000142],[-2.1999999999999993,-0.8000000000000043],[-1.9000000000000004,-1.5],[-4.1,-6],[0,0],[-2.2,6.4],[3.8,5.6],[0,0],[0,0]]}],"h":1},{"t":140,"s":[{"c":true,"i":[[0,0],[1.9000000000000004,1],[1.5999999999999996,1.5],[1.0999999999999996,2],[-2.3,6.4],[0,0],[-3.2,-5.5],[-6.3,-1.2],[0,0]],"v":[[18.8,45.6],[12.5,43.5],[7.1,39.7],[3,34.4],[1.4,15.1],[2.7,15.6],[4.2,33.7],[19.1,44.3],[18.8,45.6]],"o":[[-2.1999999999999993,-0.3999999999999986],[-2,-1],[-1.5999999999999996,-1.6000000000000014],[-3.4,-5.9],[0,0],[-2.2,6],[3.2,5.5],[0,0],[0,0]]}],"h":1},{"t":141,"s":[{"c":true,"i":[[0,0],[1.799999999999999,1.1999999999999957],[1.4000000000000004,1.6000000000000014],[0.8999999999999999,1.9000000000000057],[-2.3,5.9],[0,0],[-2.6,-5.4],[-5.7,-1.8],[0,0]],"v":[[16,44.9],[10.3,42.2],[5.6,38.1],[2.2,32.8],[1.6,14.5],[2.9,15.1],[3.5,32.2],[16.4,43.6],[16,44.9]],"o":[[-2,-0.6000000000000014],[-1.700000000000001,-1.1000000000000014],[-1.2999999999999998,-1.6000000000000014],[-2.7,-5.8],[0,0],[-2.2,5.6],[2.6,5.4],[0,0],[0,0]]}],"h":1},{"t":142,"s":[{"c":true,"i":[[0,0],[1.6999999999999993,1.6000000000000014],[1.1,2.1000000000000014],[0.5000000000000001,2.3000000000000007],[-0.2,2.3999999999999986],[-1,2.3000000000000007],[0,0],[-10.6,-4.9],[0,0]],"v":[[13.4,43.9],[7.4,39.9],[3.1,34.4],[0.6,28],[0.1,21],[1.8,14],[3.1,14.6],[14,42.7],[13.4,43.9]],"o":[[-2.3000000000000007,-1],[-1.7000000000000002,-1.6000000000000014],[-1.2000000000000002,-2],[-0.6,-2.3000000000000007],[0.19999999999999998,-2.3000000000000007],[0,0],[-4.6,10.8],[0,0],[0,0]]}],"h":1},{"t":143,"s":[{"c":true,"i":[[0,0],[1.5,1.6000000000000014],[0.9000000000000004,2],[0.3,2.1000000000000014],[-0.30000000000000004,2.1999999999999993],[-1,2.0999999999999996],[0,0],[-9.4,-5.6],[0,0]],"v":[[11.2,42.7],[5.9,38.4],[2.3,32.9],[0.3,26.7],[0.2,20.1],[2,13.6],[3.3,14.1],[11.9,41.6],[11.2,42.7]],"o":[[-2,-1.2000000000000028],[-1.5,-1.6999999999999957],[-0.9999999999999998,-2],[-0.4,-2.1999999999999993],[0.2,-2.200000000000003],[0,0],[-4.5,10],[0,0],[0,0]]}],"h":1},{"t":144,"s":[{"c":true,"i":[[0,0],[1.2999999999999998,1.7000000000000028],[0.7999999999999998,1.8999999999999986],[0.30000000000000004,2],[-0.4,2.099999999999998],[-0.9000000000000001,2],[0,0],[-8.3,-6.2],[0,0]],"v":[[9.3,41.5],[4.7,37],[1.6,31.6],[0.1,25.6],[0.3,19.3],[2.2,13.2],[3.5,13.7],[10.1,40.3],[9.3,41.5]],"o":[[-1.8000000000000007,-1.2999999999999972],[-1.2000000000000002,-1.7000000000000028],[-0.7000000000000001,-1.9000000000000021],[-0.2,-2.1000000000000014],[0.3,-2.1000000000000014],[0,0],[-4.4,9.3],[0,0],[0,0]]}],"h":1},{"t":145,"s":[{"c":true,"i":[[0,0],[1,1.7000000000000028],[0.5999999999999999,1.8000000000000007],[0.1,2],[-0.4,2],[-0.8999999999999999,1.799999999999999],[0,0],[-7.2,-6.5],[0,0]],"v":[[7.6,40.1],[3.7,35.5],[1.1,30.2],[0,24.4],[0.4,18.5],[2.4,12.8],[3.6,13.4],[8.5,39.1],[7.6,40.1]],"o":[[-1.5,-1.3999999999999986],[-1.1,-1.7000000000000028],[-0.6000000000000001,-1.8999999999999986],[-0.1,-2],[0.4,-1.8999999999999986],[0,0],[-4.3,8.7],[0,0],[0,0]]}],"h":1},{"t":146,"s":[{"c":true,"i":[[0,0],[0.8999999999999999,1.6000000000000014],[0.5,1.8000000000000007],[0.1,1.8999999999999986],[-0.39999999999999997,1.8000000000000007],[-0.9000000000000001,1.6999999999999993],[0,0],[-6.2,-6.7],[0,0]],"v":[[6.2,38.7],[2.9,34.1],[0.8,28.9],[0,23.3],[0.6,17.8],[2.6,12.4],[3.8,13],[7.2,37.7],[6.2,38.7]],"o":[[-1.2999999999999998,-1.4000000000000057],[-0.8999999999999999,-1.7000000000000028],[-0.5,-1.8999999999999986],[0,-1.8000000000000007],[0.4,-1.9000000000000004],[0,0],[-4.2,8.1],[0,0],[0,0]]}],"h":1},{"t":147,"s":[{"c":true,"i":[[0,0],[0.6999999999999997,1.5999999999999943],[0.4,1.6999999999999993],[0,1.8000000000000007],[-0.5,1.7999999999999972],[-0.8999999999999999,1.5999999999999996],[0,0],[-5.4,-6.8],[0,0]],"v":[[5,37.3],[2.2,32.7],[0.5,27.7],[0,22.4],[0.8,17.1],[2.8,12.1],[4,12.7],[6.1,36.4],[5,37.3]],"o":[[-1.1,-1.3999999999999986],[-0.8000000000000003,-1.6000000000000014],[-0.4,-1.8000000000000007],[0.1,-1.7999999999999972],[0.5,-1.700000000000001],[0,0],[-4.1,7.6],[0,0],[0,0]]}],"h":1},{"t":148,"s":[{"c":true,"i":[[0,0],[0.6000000000000001,1.5],[0.2,1.6000000000000014],[-0.1,1.6999999999999993],[-0.4,1.6999999999999993],[-0.7999999999999998,1.5],[0,0],[-4.6,-6.8],[0,0]],"v":[[4,35.9],[1.6,31.4],[0.3,26.5],[0.1,21.5],[0.9,16.5],[2.9,11.8],[4.1,12.5],[5.1,35.1],[4,35.9]],"o":[[-1,-1.3999999999999986],[-0.6000000000000001,-1.5999999999999979],[-0.3,-1.6999999999999993],[0.1,-1.6999999999999993],[0.4999999999999999,-1.5999999999999996],[0,0],[-4,7.1],[0,0],[0,0]]}],"h":1},{"t":149,"s":[{"c":true,"i":[[0,0],[0.5,1.5],[0.19999999999999998,1.6000000000000014],[-0.2,1.5],[-0.5000000000000001,1.5999999999999996],[-0.8000000000000003,1.4000000000000004],[0,0],[-3.9,-6.7],[0,0]],"v":[[3.1,34.6],[1.1,30.2],[0.1,25.4],[0.1,20.7],[1.1,15.9],[3.1,11.5],[4.3,12.2],[4.3,33.9],[3.1,34.6]],"o":[[-0.8000000000000003,-1.3999999999999986],[-0.5000000000000001,-1.5999999999999979],[-0.2,-1.5],[0.19999999999999998,-1.5999999999999979],[0.5,-1.5],[0,0],[-3.9,6.7],[0,0],[0,0]]}],"h":1},{"t":150,"s":[{"c":true,"i":[[0,0],[0.3999999999999999,1.3999999999999986],[0.1,1.5],[-0.2,1.5],[-0.5,1.3999999999999986],[-0.8000000000000003,1.299999999999999],[0,0],[-3.3,-6.6],[0,0]],"v":[[2.4,33.3],[0.8,29],[0,24.5],[0.2,19.9],[1.2,15.5],[3.2,11.3],[4.4,12],[3.7,32.7],[2.4,33.3]],"o":[[-0.7,-1.3999999999999986],[-0.4,-1.5],[-0.1,-1.6000000000000014],[0.2,-1.5],[0.5,-1.5],[0,0],[-3.8,6.3],[0,0],[0,0]]}],"h":1},{"t":151,"s":[{"c":true,"i":[[0,0],[0.30000000000000004,1.4000000000000021],[0,1.3999999999999986],[-0.19999999999999998,1.5],[-0.6,1.3999999999999986],[-0.7999999999999998,1.3000000000000007],[0,0],[-2.8,-6.4],[0,0]],"v":[[1.9,32.1],[0.5,27.9],[0,23.6],[0.3,19.2],[1.5,15],[3.4,11],[4.5,11.8],[3.1,31.6],[1.9,32.1]],"o":[[-0.5999999999999999,-1.4000000000000021],[-0.3,-1.3999999999999986],[0,-1.5],[0.3,-1.3999999999999986],[0.5,-1.4000000000000004],[0,0],[-3.6,6],[0,0],[0,0]]}],"h":1},{"t":152,"s":[{"c":true,"i":[[0,0],[0.2,1.4000000000000021],[-0.1,1.4000000000000021],[-0.30000000000000004,1.2999999999999972],[-0.5,1.3000000000000007],[-0.7999999999999998,1.1999999999999993],[0,0],[-2.3,-6.3],[0,0]],"v":[[1.4,31],[0.3,26.9],[0,22.7],[0.4,18.6],[1.6,14.6],[3.5,10.8],[4.7,11.6],[2.7,30.5],[1.4,31]],"o":[[-0.4999999999999999,-1.3000000000000007],[-0.19999999999999998,-1.3999999999999986],[0,-1.3999999999999986],[0.29999999999999993,-1.4000000000000021],[0.5,-1.299999999999999],[0,0],[-3.5,5.7],[0,0],[0,0]]}],"h":1},{"t":153,"s":[{"c":true,"i":[[0,0],[0.2,1.4000000000000021],[-0.1,1.4000000000000021],[-0.2,1.3000000000000007],[-0.5,1.200000000000001],[-0.7000000000000002,1.0999999999999996],[0,0],[-1.9,-6.1],[0,0]],"v":[[1.1,29.9],[0.2,25.9],[0.1,21.9],[0.5,18],[1.7,14.2],[3.6,10.6],[4.8,11.4],[2.4,29.5],[1.1,29.9]],"o":[[-0.40000000000000013,-1.2999999999999972],[-0.1,-1.2999999999999972],[0,-1.2999999999999972],[0.30000000000000004,-1.3000000000000007],[0.5000000000000002,-1.299999999999999],[0,0],[-3.4,5.4],[0,0],[0,0]]}],"h":1},{"t":154,"s":[{"c":true,"i":[[0,0],[0.1,1.3000000000000007],[0,1.2000000000000028],[-0.3,1.1999999999999993],[-0.5999999999999999,1.1999999999999993],[-0.7000000000000002,1.0999999999999996],[0,0],[-1.6,-5.9],[0,0]],"v":[[0.8,29],[0.1,25.2],[0,21.4],[0.6,17.6],[1.9,13.9],[3.7,10.5],[4.9,11.2],[2.1,28.6],[0.8,29]],"o":[[-0.30000000000000004,-1.3000000000000007],[-0.1,-1.3000000000000007],[0.1,-1.2999999999999972],[0.30000000000000004,-1.3000000000000007],[0.5,-1.200000000000001],[0,0],[-3.3,5.1],[0,0],[0,0]]}],"h":1},{"t":155,"s":[{"c":true,"i":[[0,0],[0,1.2000000000000028],[-0.1,1.1999999999999993],[-0.4,1.0999999999999979],[-0.5,1.0999999999999996],[-0.6999999999999997,1],[0,0],[-1.3,-5.7],[0,0]],"v":[[0.6,28.1],[0.1,24.4],[0.1,20.7],[0.8,17.1],[2,13.6],[3.8,10.3],[5,11.1],[1.9,27.8],[0.6,28.1]],"o":[[-0.3,-1.2000000000000028],[-0.1,-1.1999999999999993],[0.1,-1.1999999999999993],[0.30000000000000004,-1.200000000000001],[0.5,-1.1999999999999993],[0,0],[-3.2,4.9],[0,0],[0,0]]}],"h":1},{"t":156,"s":[{"c":true,"i":[[0,0],[0.1,1.1999999999999993],[-0.2,1.1999999999999993],[-0.30000000000000004,1.1000000000000014],[-0.5,1.0999999999999996],[-0.6999999999999997,1],[0,0],[-1.1,-5.6],[0,0]],"v":[[0.4,27.3],[0,23.7],[0.2,20.2],[0.9,16.7],[2.1,13.3],[3.9,10.2],[5,11],[1.8,27],[0.4,27.3]],"o":[[-0.2,-1.1999999999999993],[0,-1.1999999999999993],[0.09999999999999998,-1.1999999999999993],[0.29999999999999993,-1.1999999999999993],[0.5,-1.1000000000000014],[0,0],[-3.2,4.7],[0,0],[0,0]]}],"h":1},{"t":157,"s":[{"c":true,"i":[[0,0],[0,1.1999999999999993],[-0.19999999999999998,1.0999999999999979],[-0.30000000000000004,1.0999999999999979],[-0.4999999999999998,1],[-0.7000000000000002,1],[0,0],[-0.8,-5.4],[0,0]],"v":[[0.3,26.5],[0,23],[0.3,19.6],[1,16.3],[2.3,13.1],[4,10.1],[5.1,10.8],[1.6,26.3],[0.3,26.5]],"o":[[-0.19999999999999998,-1.1999999999999993],[0,-1.1000000000000014],[0.10000000000000003,-1.1000000000000014],[0.30000000000000004,-1.1000000000000014],[0.5,-1],[0,0],[-3.1,4.5],[0,0],[0,0]]}],"h":1},{"t":158,"s":[{"c":true,"i":[[0,0],[0,1.1999999999999993],[-0.09999999999999998,1.1000000000000014],[-0.30000000000000004,1.1000000000000014],[-0.5,1],[-0.5999999999999996,0.9000000000000004],[0,0],[-0.7,-5.3],[0,0]],"v":[[0.2,25.9],[0,22.5],[0.3,19.2],[1.1,16],[2.4,12.9],[4.1,10],[5.2,10.7],[1.5,25.7],[0.2,25.9]],"o":[[-0.1,-1.0999999999999979],[0.1,-1.1000000000000014],[0.2,-1.0999999999999979],[0.3999999999999999,-1],[0.5,-1],[0,0],[-3,4.4],[0,0],[0,0]]}],"h":1},{"t":159,"s":[{"c":true,"i":[[0,0],[0,1.1000000000000014],[-0.2,1.0999999999999979],[-0.29999999999999993,1],[-0.3999999999999999,1],[-0.5999999999999996,0.9000000000000004],[0,0],[-0.5,-5.1],[0,0]],"v":[[0.1,25.3],[0,22],[0.4,18.8],[1.2,15.7],[2.4,12.7],[4.1,9.9],[5.3,10.6],[1.5,25.2],[0.1,25.3]],"o":[[-0.1,-1.1000000000000014],[0.1,-1.1000000000000014],[0.19999999999999996,-1.1000000000000014],[0.40000000000000013,-1],[0.5,-1],[0,0],[-2.9,4.2],[0,0],[0,0]]}],"h":1},{"t":160,"s":[{"c":true,"i":[[0,0],[-0.1,1.0999999999999979],[-0.2,1],[-0.30000000000000004,0.8999999999999986],[-0.3999999999999999,1],[-0.6000000000000001,0.8999999999999986],[0,0],[-0.4,-5],[0,0]],"v":[[0.1,24.8],[0.1,21.6],[0.5,18.5],[1.3,15.5],[2.5,12.5],[4.2,9.8],[5.3,10.6],[1.4,24.7],[0.1,24.8]],"o":[[-0.1,-1.1000000000000014],[0,-1],[0.19999999999999996,-1],[0.30000000000000004,-1],[0.5,-0.9000000000000004],[0,0],[-2.9,4.1],[0,0],[0,0]]}],"h":1},{"t":161,"s":[{"c":true,"i":[[0,0],[0,1],[-0.2,1],[-0.30000000000000004,1],[-0.5,0.9000000000000004],[-0.6000000000000001,0.9000000000000004],[0,0],[-0.3,-4.9],[0,0]],"v":[[0,24.4],[0,21.3],[0.5,18.2],[1.3,15.2],[2.6,12.4],[4.2,9.7],[5.4,10.5],[1.4,24.3],[0,24.4]],"o":[[-0.1,-1],[0.1,-1],[0.19999999999999996,-1],[0.3999999999999999,-0.8999999999999986],[0.5,-0.9000000000000004],[0,0],[-2.8,4],[0,0],[0,0]]}],"h":1},{"t":162,"s":[{"c":true,"i":[[0,0],[-0.1,1.1000000000000014],[-0.3,1],[-0.2999999999999998,1],[-0.5,0.9000000000000004],[-0.5999999999999996,0.8000000000000007],[0,0],[-0.2,-4.8],[0,0]],"v":[[0,24],[0.1,20.9],[0.6,17.9],[1.4,15],[2.7,12.2],[4.3,9.6],[5.4,10.4],[1.4,23.9],[0,24]],"o":[[0,-1],[0.1,-1],[0.20000000000000007,-1],[0.40000000000000013,-0.9000000000000004],[0.5,-0.8999999999999986],[0,0],[-2.8,3.9],[0,0],[0,0]]}],"h":1},{"t":163,"s":[{"c":true,"i":[[0,0],[-0.1,1],[-0.19999999999999996,0.8999999999999986],[-0.30000000000000004,0.9000000000000004],[-0.40000000000000036,0.8000000000000007],[-0.5999999999999996,0.8000000000000007],[0,0],[-0.1,-4.7],[0,0]],"v":[[0,23.7],[0.1,20.7],[0.6,17.8],[1.5,14.9],[2.7,12.2],[4.3,9.6],[5.4,10.4],[1.4,23.6],[0,23.7]],"o":[[0,-1],[0.1,-1],[0.30000000000000004,-1],[0.3999999999999999,-0.9000000000000004],[0.5,-0.8999999999999986],[0,0],[-2.8,3.8],[0,0],[0,0]]}],"h":1},{"t":164,"s":[{"c":true,"i":[[0,0],[-0.1,1],[-0.19999999999999996,1],[-0.30000000000000004,0.9000000000000004],[-0.40000000000000036,0.9000000000000004],[-0.5999999999999996,0.8000000000000007],[0,0],[-0.1,-4.7],[0,0]],"v":[[0,23.4],[0.1,20.4],[0.6,17.5],[1.5,14.7],[2.7,12],[4.3,9.5],[5.5,10.4],[1.4,23.4],[0,23.4]],"o":[[0,-1],[0.1,-1],[0.30000000000000004,-1],[0.3999999999999999,-0.8999999999999986],[0.5,-0.9000000000000004],[0,0],[-2.7,3.8],[0,0],[0,0]]}],"h":1},{"t":165,"s":[{"c":true,"i":[[0,0],[-0.1,0.8999999999999986],[-0.29999999999999993,1],[-0.40000000000000013,0.9000000000000004],[-0.5,0.8000000000000007],[-0.6000000000000005,0.8000000000000007],[0,0],[0,-4.6],[0,0]],"v":[[0,23.2],[0.1,20.3],[0.7,17.4],[1.6,14.6],[2.8,12],[4.4,9.5],[5.5,10.3],[1.4,23.2],[0,23.2]],"o":[[0,-1],[0.19999999999999998,-1],[0.20000000000000007,-0.8999999999999986],[0.2999999999999998,-0.9000000000000004],[0.5,-0.9000000000000004],[0,0],[-2.7,3.7],[0,0],[0,0]]}],"h":1},{"t":166,"s":[{"c":true,"i":[[0,0],[-0.1,0.9000000000000021],[-0.19999999999999996,1],[-0.40000000000000013,0.9000000000000004],[-0.3999999999999999,0.8000000000000007],[-0.6000000000000005,0.8000000000000007],[0,0],[0,-4.6],[0,0]],"v":[[0,23.1],[0.2,20.2],[0.7,17.3],[1.6,14.6],[2.8,12],[4.4,9.5],[5.5,10.3],[1.4,23.1],[0,23.1]],"o":[[0,-1],[0.09999999999999998,-1],[0.30000000000000004,-0.9000000000000021],[0.3999999999999999,-0.9000000000000004],[0.5,-0.9000000000000004],[0,0],[-2.7,3.7],[0,0],[0,0]]}],"h":1},{"t":167,"s":[{"c":true,"i":[[0,0],[-0.1,0.8999999999999986],[-0.19999999999999996,0.8999999999999986],[-0.40000000000000013,0.9000000000000004],[-0.3999999999999999,0.9000000000000004],[-0.6000000000000005,0.8000000000000007],[0,0],[0,-4.6],[0,0]],"v":[[0,23],[0.2,20.1],[0.7,17.3],[1.6,14.5],[2.8,11.9],[4.4,9.5],[5.5,10.3],[1.4,23],[0,23]],"o":[[0,-1],[0.09999999999999998,-1],[0.30000000000000004,-1],[0.3999999999999999,-0.9000000000000004],[0.5,-0.8000000000000007],[0,0],[-2.7,3.7],[0,0],[0,0]]}],"h":1},{"t":168,"s":[{"c":true,"i":[[0,0],[-0.1,0.8999999999999986],[-0.19999999999999996,0.8999999999999986],[-0.40000000000000013,0.9000000000000004],[-0.3999999999999999,0.9000000000000004],[-0.6000000000000005,0.8000000000000007],[0,0],[0,-4.6],[0,0]],"v":[[0,23],[0.2,20.1],[0.7,17.3],[1.6,14.5],[2.8,11.9],[4.4,9.5],[5.5,10.3],[1.4,23],[0,23]],"o":[[0,-1],[0.09999999999999998,-1],[0.30000000000000004,-1],[0.3999999999999999,-0.9000000000000004],[0.5,-0.8000000000000007],[0,0],[-2.7,3.7],[0,0],[0,0]]}],"h":1},{"t":181,"s":[{"c":true,"i":[[0,0],[-0.1,1],[-0.30000000000000004,1],[-0.40000000000000013,1],[-0.5,0.9000000000000004],[-0.5999999999999996,0.7999999999999989],[0,0],[0,-4.8],[0,0]],"v":[[0,23],[0.2,20],[0.8,17],[1.8,14.1],[3.1,11.4],[4.8,8.9],[5.9,9.8],[1.4,23],[0,23]],"o":[[0,-1],[0.09999999999999998,-1],[0.30000000000000004,-1],[0.40000000000000013,-0.9000000000000004],[0.5,-0.9000000000000004],[0,0],[-2.9,3.8],[0,0],[0,0]]}],"h":1},{"t":182,"s":[{"c":true,"i":[[0,0],[-0.1,1],[-0.30000000000000004,1.0999999999999979],[-0.3999999999999999,1],[-0.6000000000000001,0.8999999999999986],[-0.7000000000000002,0.8000000000000007],[0,0],[0,-5.1],[0,0]],"v":[[0,23],[0.2,19.8],[0.9,16.6],[2,13.6],[3.5,10.8],[5.4,8.2],[6.5,9.1],[1.4,23],[0,23]],"o":[[0,-1.1000000000000014],[0.2,-1.1000000000000014],[0.29999999999999993,-1.0000000000000018],[0.3999999999999999,-1],[0.5999999999999996,-0.9000000000000004],[0,0],[-3.3,3.9],[0,0],[0,0]]}],"h":1},{"t":183,"s":[{"c":true,"i":[[0,0],[-0.19999999999999998,1.0999999999999979],[-0.30000000000000004,1.1000000000000014],[-0.4999999999999998,1],[-0.6000000000000001,1],[-0.7999999999999998,0.8999999999999995],[0,0],[0,-5.5],[0,0]],"v":[[0,23],[0.3,19.6],[1,16.2],[2.3,13],[4,10],[6.2,7.3],[7.2,8.2],[1.4,23],[0,23]],"o":[[0,-1.1999999999999993],[0.10000000000000003,-1.2000000000000028],[0.3999999999999999,-1.0999999999999996],[0.5,-1],[0.7000000000000002,-0.9000000000000004],[0,0],[-3.8,4],[0,0],[0,0]]}],"h":1},{"t":184,"s":[{"c":true,"i":[[0,0],[-0.19999999999999998,1.3000000000000007],[-0.3999999999999999,1.0999999999999996],[-0.5,1.0999999999999996],[-0.7999999999999998,1],[-0.8999999999999995,0.8999999999999995],[0,0],[0,-6],[0,0]],"v":[[0,23],[0.3,19.2],[1.2,15.6],[2.7,12.1],[4.8,9],[7.3,6.2],[8.2,7.2],[1.4,23],[0,23]],"o":[[0,-1.3000000000000007],[0.2,-1.1999999999999993],[0.5,-1.1999999999999993],[0.5999999999999996,-1.0999999999999996],[0.7000000000000002,-1],[0,0],[-4.4,4.1],[0,0],[0,0]]}],"h":1},{"t":185,"s":[{"c":true,"i":[[0,0],[-0.30000000000000004,1.3000000000000007],[-0.5,1.299999999999999],[-0.7000000000000002,1.1999999999999993],[-0.8999999999999995,1],[-1.0999999999999996,0.9000000000000004],[0,0],[0,-6.6],[0,0]],"v":[[0,23],[0.4,18.9],[1.5,14.9],[3.2,11.3],[5.6,8],[8.6,5.1],[9.5,6.1],[1.4,23],[0,23]],"o":[[0,-1.3999999999999986],[0.19999999999999996,-1.3999999999999986],[0.5,-1.200000000000001],[0.6999999999999997,-1.200000000000001],[0.9000000000000004,-1.0999999999999996],[0,0],[-5.1,4.1],[0,0],[0,0]]}],"h":1},{"t":186,"s":[{"c":true,"i":[[0,0],[-0.3,1.3999999999999986],[-0.6000000000000001,1.3000000000000007],[-0.7999999999999998,1.200000000000001],[-1.0999999999999996,1.0999999999999996],[-1.3000000000000007,0.9000000000000004],[0,0],[0,-7.3],[0,0]],"v":[[0,23],[0.5,18.5],[1.8,14.2],[3.9,10.2],[6.8,6.7],[10.3,3.8],[11.1,5],[1.4,23],[0,23]],"o":[[0,-1.5],[0.30000000000000004,-1.5],[0.5999999999999999,-1.3999999999999986],[0.8000000000000003,-1.1999999999999993],[1,-1.1000000000000005],[0,0],[-6,4],[0,0],[0,0]]}],"h":1},{"t":187,"s":[{"c":true,"i":[[0,0],[-0.3,1.6000000000000014],[-0.7000000000000002,1.5],[-1,1.3000000000000007],[-1.2999999999999998,1.0999999999999996],[-1.5,0.7999999999999998],[0,0],[0,-8],[0,0]],"v":[[0,23],[0.5,18],[2.1,13.3],[4.7,9],[8.1,5.4],[12.3,2.6],[13,3.8],[1.4,23],[0,23]],"o":[[0,-1.6999999999999993],[0.4,-1.6999999999999993],[0.6999999999999997,-1.5],[1,-1.2999999999999998],[1.3000000000000007,-1],[0,0],[-7.1,3.7],[0,0],[0,0]]}],"h":1},{"t":188,"s":[{"c":true,"i":[[0,0],[-0.49999999999999994,1.8000000000000007],[-0.8,1.5999999999999996],[-1.2000000000000002,1.3999999999999995],[-1.6000000000000014,1.1000000000000005],[-1.799999999999999,0.7000000000000002],[0,0],[0,-8.9],[0,0]],"v":[[0,23],[0.7,17.4],[2.6,12.3],[5.7,7.8],[9.8,4.1],[14.7,1.5],[15.2,2.8],[1.4,23],[0,23]],"o":[[0,-1.8999999999999986],[0.40000000000000013,-1.799999999999999],[0.8999999999999999,-1.6000000000000014],[1.2000000000000002,-1.3999999999999995],[1.5,-0.9999999999999996],[0,0],[-8.3,3.2],[0,0],[0,0]]}],"h":1},{"t":189,"s":[{"c":true,"i":[[0,0],[-0.5,1.9000000000000021],[-1,1.6999999999999993],[-1.4000000000000004,1.4000000000000004],[-1.799999999999999,1],[-2.0999999999999996,0.5],[0,0],[0,-9.9],[0,0]],"v":[[0,23],[0.8,16.9],[3.2,11.3],[6.9,6.6],[11.7,3],[17.5,0.7],[17.8,2],[1.4,23],[0,23]],"o":[[0,-2.1000000000000014],[0.5999999999999999,-1.9999999999999982],[1,-1.700000000000001],[1.4000000000000004,-1.3999999999999995],[1.8000000000000007,-1],[0,0],[-9.6,2.4],[0,0],[0,0]]}],"h":1},{"t":190,"s":[{"c":true,"i":[[0,0],[-0.6,2.099999999999998],[-1.2999999999999998,1.799999999999999],[-1.700000000000001,1.3999999999999995],[-2,0.8999999999999999],[-2.3000000000000007,0.30000000000000004],[0,0],[0,-11],[0,0]],"v":[[0,23],[1,16.3],[3.9,10.3],[8.3,5.4],[13.9,1.9],[20.5,0.1],[20.6,1.5],[1.4,23],[0,23]],"o":[[0,-2.3000000000000007],[0.7,-2.200000000000001],[1.1999999999999997,-1.9000000000000004],[1.6999999999999993,-1.5000000000000004],[2.0999999999999996,-0.8999999999999999],[0,0],[-10.9,1.2],[0,0],[0,0]]}],"h":1},{"t":191,"s":[{"c":true,"i":[[0,0],[-0.5,2],[-1.1,1.799999999999999],[-1.5,1.4000000000000004],[-6.2,-0.2],[0,0],[4.2,-4.1],[0,-5.8],[0,0]],"v":[[0,23],[0.8,16.9],[3.2,11.3],[7,6.5],[23.6,0],[23.6,1.4],[7.9,7.5],[1.4,23],[0,23]],"o":[[0,-2.1000000000000014],[0.5999999999999999,-1.8999999999999986],[1,-1.700000000000001],[4.5,-4.3],[0,0],[-5.8,-0.2],[-4.2,4.1],[0,0],[0,0]]}],"h":1},{"t":192,"s":[{"c":true,"i":[[0,0],[-0.7,2.1000000000000014],[-1.2999999999999998,1.9000000000000004],[-1.6999999999999993,1.5],[-6.7,-1.1],[0,0],[4.9,-4.1],[0,-6.4],[0,0]],"v":[[0,23],[1,16.4],[3.8,10.4],[8.2,5.4],[26.9,0.3],[26.7,1.7],[9.1,6.5],[1.4,23],[0,23]],"o":[[0,-2.3000000000000007],[0.6000000000000001,-2.099999999999998],[1.2000000000000002,-1.8000000000000007],[5.2,-4.4],[0,0],[-6.3,-1.1],[-4.9,4.1],[0,0],[0,0]]}],"h":1},{"t":193,"s":[{"c":true,"i":[[0,0],[-0.7000000000000001,2.3000000000000007],[-1.4000000000000004,1.9000000000000004],[-2,1.3999999999999995],[-7,-2.3],[0,0],[5.6,-4.1],[0,-6.9],[0,0]],"v":[[0,23],[1.1,15.8],[4.4,9.5],[9.5,4.4],[30.1,1.1],[29.7,2.4],[10.3,5.5],[1.4,23],[0,23]],"o":[[0,-2.5],[0.7999999999999998,-2.200000000000001],[1.3999999999999995,-1.9000000000000004],[6,-4.3],[0,0],[-6.6,-2.1],[-5.6,4.1],[0,0],[0,0]]}],"h":1},{"t":194,"s":[{"c":true,"i":[[0,0],[-6.7,4.2],[-2.5,0.5000000000000001],[-2.599999999999998,-0.30000000000000004],[-2.400000000000002,-1.2],[0,0],[6.3,-3.9],[0,-7.5],[0,0]],"v":[[0,23],[10.8,3.5],[18,0.6],[25.7,0.2],[33.1,2.4],[32.5,3.6],[11.6,4.6],[1.4,23],[0,23]],"o":[[0,-7.9],[2.1999999999999993,-1.4],[2.5,-0.6],[2.5,0.3],[0,0],[-6.7,-3.3],[-6.3,3.9],[0,0],[0,0]]}],"h":1},{"t":195,"s":[{"c":true,"i":[[0,0],[-7.5,4],[-2.700000000000003,0.3],[-2.6999999999999993,-0.6],[-2.299999999999997,-1.6],[0,0],[7.1,-3.7],[0,-8],[0,0]],"v":[[0,23],[12.2,2.7],[20.1,0.2],[28.3,0.6],[35.9,4],[35.2,5.1],[12.9,3.9],[1.4,23],[0,23]],"o":[[0,-8.5],[2.5,-1.3000000000000003],[2.799999999999997,-0.30000000000000004],[2.6999999999999993,0.7000000000000001],[0,0],[-6.6,-4.5],[-7.1,3.7],[0,0],[0,0]]}],"h":1},{"t":196,"s":[{"c":true,"i":[[0,0],[-1.1,2.6999999999999993],[-2.0999999999999996,2.0999999999999996],[-2.799999999999999,1.2000000000000002],[-6.7,-6.1],[0,0],[7.8,-3.5],[0,-8.5],[0,0]],"v":[[0,23],[1.7,14.3],[6.5,7.1],[13.7,2],[38.4,5.9],[37.5,6.9],[14.2,3.2],[1.4,23],[0,23]],"o":[[0,-3],[1.0999999999999999,-2.700000000000001],[2,-2.0999999999999996],[8.3,-3.7],[0,0],[-6.3,-5.7],[-7.8,3.5],[0,0],[0,0]]}],"h":1},{"t":197,"s":[{"c":true,"i":[[0,0],[-1.2,2.799999999999999],[-2.3,2.2],[-3,1.1],[-6.2,-7.3],[0,0],[8.5,-3.1],[0,-9.1],[0,0]],"v":[[0,23],[1.9,13.9],[7.2,6.3],[15.1,1.4],[40.5,8.1],[39.5,9],[15.5,2.7],[1.4,23],[0,23]],"o":[[0,-3.1999999999999993],[1.3000000000000003,-2.9000000000000004],[2.2,-2.0999999999999996],[9,-3.3],[0,0],[-5.9,-6.9],[-8.5,3.1],[0,0],[0,0]]}],"h":1},{"t":198,"s":[{"c":true,"i":[[0,0],[-9.8,2.9],[-3.1999999999999993,-0.5],[-2.799999999999997,-1.7],[-1.8999999999999986,-2.8000000000000007],[0,0],[9.2,-2.7],[0,-9.6],[0,0]],"v":[[0,23],[16.4,1],[26.2,0.3],[35.3,3.5],[42.3,10.4],[41.1,11.2],[16.8,2.3],[1.4,23],[0,23]],"o":[[0,-10.2],[3.3000000000000007,-1],[3.1999999999999993,0.39999999999999997],[2.700000000000003,1.7999999999999998],[0,0],[-5.2,-8],[-9.2,2.7],[0,0],[0,0]]}],"h":1},{"t":199,"s":[{"c":true,"i":[[0,0],[-1.4999999999999998,3],[-2.6999999999999993,2.1000000000000005],[-3.5,0.7999999999999999],[-4.7,-9.6],[0,0],[9.8,-2.3],[0,-10.1],[0,0]],"v":[[0,23],[2.3,13],[8.6,5.1],[17.8,0.6],[43.6,12.8],[42.4,13.5],[18.1,1.9],[1.4,23],[0,23]],"o":[[0,-3.6000000000000014],[1.5,-3.0999999999999996],[2.5999999999999996,-2.0999999999999996],[10.4,-2.4],[0,0],[-4.4,-9],[-9.8,2.3],[0,0],[0,0]]}],"h":1},{"t":200,"s":[{"c":true,"i":[[0,0],[-1.6,3.0999999999999996],[-2.9000000000000004,2.2],[-3.700000000000001,0.6000000000000001],[-3.8,-10.5],[0,0],[10.4,-1.8],[0,-10.5],[0,0]],"v":[[0,23],[2.5,12.6],[9.3,4.5],[19.1,0.3],[44.7,15.3],[43.4,15.7],[19.3,1.7],[1.4,23],[0,23]],"o":[[0,-3.6999999999999993],[1.5999999999999996,-3.1999999999999993],[2.799999999999999,-2.1],[11,-1.9],[0,0],[-3.5,-9.9],[-10.4,1.8],[0,0],[0,0]]}],"h":1},{"t":201,"s":[{"c":true,"i":[[0,0],[-11.6,1.4],[-3.5,-1.3],[-2.5,-2.8],[-0.8999999999999986,-3.799999999999999],[0,0],[10.9,-1.3],[0,-11],[0,0]],"v":[[0,23],[20.3,0.2],[31.4,1.6],[40.3,7.8],[45.4,17.7],[44,18],[20.5,1.5],[1.4,23],[0,23]],"o":[[0,-11.7],[3.8999999999999986,-0.5],[3.3999999999999986,1.2999999999999998],[2.4000000000000057,2.7],[0,0],[-2.5,-10.7],[-10.9,1.3],[0,0],[0,0]]}],"h":1},{"t":202,"s":[{"c":true,"i":[[0,0],[-1.9,3.3999999999999986],[-3.0999999999999996,2.1],[-4,0.3],[-1.6,-12],[0,0],[11.4,-0.7],[0,-11.4],[0,0]],"v":[[0,23],[2.9,11.8],[10.5,3.6],[21.5,0],[45.8,20],[44.4,20.2],[21.6,1.4],[1.4,23],[0,23]],"o":[[0,-4],[1.8000000000000003,-3.3000000000000007],[3.1999999999999993,-2],[12.1,-0.8],[0,0],[-1.5,-11.3],[-11.4,0.7],[0,0],[0,0]]}],"h":1},{"t":203,"s":[{"c":true,"i":[[0,0],[-12.6,0.2],[-3.400000000000002,-1.9],[-2.1000000000000014,-3.4000000000000004],[-0.10000000000000142,-4.199999999999999],[0,0],[11.8,-0.2],[0,-11.8],[0,0]],"v":[[0,23],[22.6,0],[34.2,2.9],[42.6,10.9],[46,22.3],[44.6,22.3],[22.7,1.4],[1.4,23],[0,23]],"o":[[0,-12.6],[4.199999999999999,-0.1],[3.3999999999999986,1.9],[2,3.299999999999999],[0,0],[-0.4,-11.8],[-11.8,0.2],[0,0],[0,0]]}],"h":1},{"t":204,"s":[{"c":true,"i":[[0,0],[-7.3,4],[-7.1,-4.5],[0.5,-8.4],[0,0],[6.7,4.2],[6.9,-3.8],[0,-7.9],[0,0]],"v":[[0,23],[11.9,2.9],[35.3,3.6],[46,24.4],[44.6,24.3],[34.5,4.7],[12.6,4.1],[1.4,23],[0,23]],"o":[[0,-8.4],[7.3,-4],[7.1,4.5],[0,0],[0.5,-7.9],[-6.7,-4.2],[-6.9,3.8],[0,0],[0,0]]}],"h":1},{"t":205,"s":[{"c":true,"i":[[0,0],[-7.7,3.9],[-7,-5],[1.3,-8.5],[0,0],[6.6,4.7],[7.2,-3.7],[0,-8.1],[0,0]],"v":[[0,23],[12.5,2.5],[36.4,4.3],[45.8,26.4],[44.4,26.2],[35.6,5.4],[13.1,3.8],[1.4,23],[0,23]],"o":[[0,-8.6],[7.7,-3.9],[7,5],[0,0],[1.2,-8],[-6.6,-4.7],[-7.2,3.7],[0,0],[0,0]]}],"h":1},{"t":206,"s":[{"c":true,"i":[[0,0],[-8,3.8],[-6.9,-5.5],[2,-8.6],[0,0],[6.5,5.2],[7.5,-3.6],[0,-8.3],[0,0]],"v":[[0,23],[13.1,2.3],[37.4,5.1],[45.4,28.2],[44.1,27.9],[36.5,6.1],[13.6,3.5],[1.4,23],[0,23]],"o":[[0,-8.8],[8,-3.8],[6.9,5.5],[0,0],[1.9,-8.1],[-6.5,-5.2],[-7.5,3.6],[0,0],[0,0]]}],"h":1},{"t":207,"s":[{"c":true,"i":[[0,0],[-8.3,3.7],[-6.8,-6],[2.7,-8.6],[0,0],[6.4,5.7],[7.8,-3.5],[0,-8.5],[0,0]],"v":[[0,23],[13.6,2],[38.3,5.8],[44.9,29.9],[43.6,29.5],[37.4,6.9],[14.2,3.3],[1.4,23],[0,23]],"o":[[0,-9.1],[8.3,-3.7],[6.8,6],[0,0],[2.6,-8.1],[-6.4,-5.7],[-7.8,3.5],[0,0],[0,0]]}],"h":1},{"t":208,"s":[{"c":true,"i":[[0,0],[-8.5,3.6],[-6.6,-6.5],[3.4,-8.6],[0,0],[6.2,6.1],[8,-3.4],[0,-8.7],[0,0]],"v":[[0,23],[14.1,1.8],[39.1,6.6],[44.4,31.5],[43.1,31],[38.1,7.6],[14.6,3.1],[1.4,23],[0,23]],"o":[[0,-9.3],[8.5,-3.6],[6.6,6.5],[0,0],[3.2,-8.1],[-6.2,-6.1],[-8,3.4],[0,0],[0,0]]}],"h":1},{"t":209,"s":[{"c":true,"i":[[0,0],[-8.8,3.5],[-6.4,-6.9],[4.1,-8.5],[0,0],[6.1,6.5],[8.3,-3.3],[0,-8.9],[0,0]],"v":[[0,23],[14.6,1.6],[39.8,7.3],[43.7,33],[42.5,32.4],[38.8,8.3],[15.1,2.9],[1.4,23],[0,23]],"o":[[0,-9.5],[8.8,-3.5],[6.4,6.9],[0,0],[3.8,-8],[-6.1,-6.5],[-8.3,3.3],[0,0],[0,0]]}],"h":1},{"t":210,"s":[{"c":true,"i":[[0,0],[-9,3.3],[-6.3,-7.3],[4.7,-8.4],[0,0],[5.9,6.9],[8.5,-3.1],[0,-9.1],[0,0]],"v":[[0,23],[15,1.4],[40.5,8.1],[43.1,34.3],[41.8,33.6],[39.5,9],[15.5,2.7],[1.4,23],[0,23]],"o":[[0,-9.6],[9,-3.3],[6.3,7.3],[0,0],[4.4,-7.9],[-5.9,-6.9],[-8.5,3.1],[0,0],[0,0]]}],"h":1},{"t":211,"s":[{"c":true,"i":[[0,0],[-9.3,3.2],[-6.1,-7.7],[5.3,-8.2],[0,0],[5.7,7.3],[8.7,-3],[0,-9.2],[0,0]],"v":[[0,23],[15.5,1.3],[41.1,8.8],[42.3,35.5],[41.2,34.7],[40,9.6],[15.9,2.6],[1.4,23],[0,23]],"o":[[0,-9.8],[9.3,-3.2],[6.1,7.7],[0,0],[5,-7.7],[-5.7,-7.3],[-8.7,3],[0,0],[0,0]]}],"h":1},{"t":212,"s":[{"c":true,"i":[[0,0],[-9.5,3.1],[-5.9,-8.1],[5.9,-8.1],[0,0],[5.5,7.6],[8.9,-2.9],[0,-9.4],[0,0]],"v":[[0,23],[15.9,1.1],[41.6,9.5],[41.6,36.5],[40.5,35.7],[40.5,10.3],[16.3,2.4],[1.4,23],[0,23]],"o":[[0,-10],[9.5,-3.1],[5.9,8.1],[0,0],[5.5,-7.6],[-5.5,-7.6],[-8.9,2.9],[0,0],[0,0]]}],"h":1},{"t":213,"s":[{"c":true,"i":[[0,0],[-9.7,3],[-5.6,-8.4],[6.4,-7.9],[0,0],[5.3,7.9],[9.1,-2.8],[0,-9.5],[0,0]],"v":[[0,23],[16.3,1],[42.1,10.2],[40.8,37.5],[39.8,36.6],[40.9,10.9],[16.7,2.3],[1.4,23],[0,23]],"o":[[0,-10.1],[9.7,-3],[5.6,8.4],[0,0],[6,-7.4],[-5.3,-7.9],[-9.1,2.8],[0,0],[0,0]]}],"h":1},{"t":214,"s":[{"c":true,"i":[[0,0],[-9.9,2.8],[-5.4,-8.7],[6.9,-7.6],[0,0],[5.1,8.2],[9.3,-2.7],[0,-9.6],[0,0]],"v":[[0,23],[16.7,0.9],[42.5,10.8],[40.1,38.4],[39.1,37.5],[41.3,11.5],[17,2.2],[1.4,23],[0,23]],"o":[[0,-10.3],[9.9,-2.8],[5.4,8.7],[0,0],[6.5,-7.2],[-5.1,-8.2],[-9.3,2.7],[0,0],[0,0]]}],"h":1},{"t":215,"s":[{"c":true,"i":[[0,0],[-10,2.7],[-5.2,-9],[7.3,-7.4],[0,0],[4.9,8.4],[9.4,-2.5],[0,-9.8],[0,0]],"v":[[0,23],[17,0.8],[42.9,11.4],[39.4,39.2],[38.4,38.2],[41.7,12.1],[17.4,2.1],[1.4,23],[0,23]],"o":[[0,-10.4],[10,-2.7],[5.2,9],[0,0],[6.9,-6.9],[-4.9,-8.4],[-9.4,2.5],[0,0],[0,0]]}],"h":1},{"t":216,"s":[{"c":true,"i":[[0,0],[-10.2,2.6],[-5,-9.2],[7.7,-7.1],[0,0],[4.7,8.7],[9.6,-2.4],[0,-9.9],[0,0]],"v":[[0,23],[17.3,0.7],[43.2,12],[38.6,39.9],[37.7,38.9],[42,12.7],[17.7,2],[1.4,23],[0,23]],"o":[[0,-10.5],[10.2,-2.6],[5,9.2],[0,0],[7.3,-6.7],[-4.7,-8.7],[-9.6,2.4],[0,0],[0,0]]}],"h":1},{"t":217,"s":[{"c":true,"i":[[0,0],[-10.3,2.5],[-4.8,-9.5],[8.1,-6.9],[0,0],[4.5,8.9],[9.7,-2.3],[0,-10],[0,0]],"v":[[0,23],[17.6,0.6],[43.5,12.6],[37.9,40.5],[37,39.5],[42.3,13.2],[18,2],[1.4,23],[0,23]],"o":[[0,-10.6],[10.3,-2.5],[4.8,9.5],[0,0],[7.6,-6.5],[-4.5,-8.9],[-9.7,2.3],[0,0],[0,0]]}],"h":1},{"t":218,"s":[{"c":true,"i":[[0,0],[-10.5,2.4],[-4.6,-9.7],[8.4,-6.6],[0,0],[4.3,9.1],[9.9,-2.2],[0,-10.1],[0,0]],"v":[[0,23],[17.9,0.6],[43.8,13.1],[37.2,41.1],[36.4,40],[42.5,13.7],[18.2,1.9],[1.4,23],[0,23]],"o":[[0,-10.7],[10.5,-2.4],[4.6,9.7],[0,0],[7.9,-6.3],[-4.3,-9.1],[-9.9,2.2],[0,0],[0,0]]}],"h":1},{"t":219,"s":[{"c":true,"i":[[0,0],[-10.6,2.3],[-4.4,-9.9],[8.8,-6.4],[0,0],[4.2,9.3],[10,-2.1],[0,-10.2],[0,0]],"v":[[0,23],[18.2,0.5],[44,13.6],[36.6,41.6],[35.8,40.5],[42.7,14.2],[18.5,1.9],[1.4,23],[0,23]],"o":[[0,-10.9],[10.6,-2.3],[4.4,9.9],[0,0],[8.2,-6],[-4.2,-9.3],[-10,2.1],[0,0],[0,0]]}],"h":1},{"t":220,"s":[{"c":true,"i":[[0,0],[-10.7,2.2],[-4.2,-10.1],[9.1,-6.2],[0,0],[4,9.5],[10.1,-2],[0,-10.3],[0,0]],"v":[[0,23],[18.4,0.5],[44.2,14.1],[35.9,42],[35.2,40.9],[42.9,14.6],[18.7,1.8],[1.4,23],[0,23]],"o":[[0,-10.9],[10.7,-2.2],[4.2,10.1],[0,0],[8.5,-5.8],[-4,-9.5],[-10.1,2],[0,0],[0,0]]}],"h":1},{"t":221,"s":[{"c":true,"i":[[0,0],[-10.8,2.1],[-4.1,-10.3],[9.3,-5.9],[0,0],[3.8,9.6],[10.2,-1.9],[0,-10.4],[0,0]],"v":[[0,23],[18.7,0.4],[44.4,14.5],[35.3,42.4],[34.6,41.2],[43.1,15],[18.9,1.8],[1.4,23],[0,23]],"o":[[0,-11],[10.8,-2.1],[4.1,10.3],[0,0],[8.8,-5.6],[-3.8,-9.6],[-10.2,1.9],[0,0],[0,0]]}],"h":1},{"t":222,"s":[{"c":true,"i":[[0,0],[-10.9,2],[-3.9,-10.4],[9.6,-5.7],[0,0],[3.7,9.8],[10.3,-1.9],[0,-10.5],[0,0]],"v":[[0,23],[18.9,0.4],[44.5,14.9],[34.8,42.8],[34.1,41.6],[43.2,15.4],[19.1,1.7],[1.4,23],[0,23]],"o":[[0,-11.1],[10.9,-2],[3.9,10.4],[0,0],[9,-5.4],[-3.7,-9.8],[-10.3,1.9],[0,0],[0,0]]}],"h":1},{"t":223,"s":[{"c":true,"i":[[0,0],[-11,1.9],[-3.7,-10.6],[9.8,-5.5],[0,0],[3.5,9.9],[10.4,-1.8],[0,-10.5],[0,0]],"v":[[0,23],[19.1,0.3],[44.7,15.3],[34.2,43.1],[33.6,41.9],[43.4,15.8],[19.3,1.7],[1.4,23],[0,23]],"o":[[0,-11.2],[11,-1.9],[3.7,10.6],[0,0],[9.2,-5.1],[-3.5,-9.9],[-10.4,1.8],[0,0],[0,0]]}],"h":1},{"t":224,"s":[{"c":true,"i":[[0,0],[-11.1,1.8],[-3.6,-10.7],[10,-5.3],[0,0],[3.4,10],[10.5,-1.7],[0,-10.6],[0,0]],"v":[[0,23],[19.3,0.3],[44.8,15.7],[33.7,43.3],[33.1,42.1],[43.5,16.1],[19.5,1.7],[1.4,23],[0,23]],"o":[[0,-11.3],[11.1,-1.8],[3.6,10.7],[0,0],[9.4,-4.9],[-3.4,-10],[-10.5,1.7],[0,0],[0,0]]}],"h":1},{"t":225,"s":[{"c":true,"i":[[0,0],[-11.2,1.7],[-3.4,-10.8],[10.1,-5.1],[0,0],[3.2,10.2],[10.5,-1.6],[0,-10.7],[0,0]],"v":[[0,23],[19.5,0.3],[44.9,16],[33.3,43.6],[32.7,42.3],[43.6,16.4],[19.7,1.6],[1.4,23],[0,23]],"o":[[0,-11.3],[11.2,-1.7],[3.4,10.8],[0,0],[9.5,-4.8],[-3.2,-10.2],[-10.5,1.6],[0,0],[0,0]]}],"h":1},{"t":226,"s":[{"c":true,"i":[[0,0],[-11.3,1.7],[-3.3,-10.9],[10.3,-4.9],[0,0],[3.1,10.3],[10.6,-1.6],[0,-10.7],[0,0]],"v":[[0,23],[19.6,0.2],[45,16.3],[32.8,43.8],[32.3,42.5],[43.7,16.7],[19.8,1.6],[1.4,23],[0,23]],"o":[[0,-11.4],[11.3,-1.7],[3.3,10.9],[0,0],[9.7,-4.6],[-3.1,-10.3],[-10.6,1.6],[0,0],[0,0]]}],"h":1},{"t":227,"s":[{"c":true,"i":[[0,0],[-11.3,1.6],[-3.2,-11],[10.4,-4.7],[0,0],[3,10.3],[10.7,-1.5],[0,-10.8],[0,0]],"v":[[0,23],[19.8,0.2],[45.1,16.6],[32.4,44],[31.9,42.7],[43.8,17],[20,1.6],[1.4,23],[0,23]],"o":[[0,-11.5],[11.3,-1.6],[3.2,11],[0,0],[9.8,-4.4],[-3,-10.3],[-10.7,1.5],[0,0],[0,0]]}],"h":1},{"t":228,"s":[{"c":true,"i":[[0,0],[-11.4,1.6],[-3.1,-11.1],[10.6,-4.5],[0,0],[2.9,10.4],[10.7,-1.5],[0,-10.8],[0,0]],"v":[[0,23],[19.9,0.2],[45.2,16.8],[32.1,44.1],[31.5,42.9],[43.8,17.2],[20.1,1.6],[1.4,23],[0,23]],"o":[[0,-11.5],[11.4,-1.6],[3.1,11.1],[0,0],[9.9,-4.3],[-2.9,-10.4],[-10.7,1.5],[0,0],[0,0]]}],"h":1},{"t":229,"s":[{"c":true,"i":[[0,0],[-11.5,1.5],[-3,-11.2],[10.7,-4.4],[0,0],[2.8,10.5],[10.8,-1.4],[0,-10.9],[0,0]],"v":[[0,23],[20,0.2],[45.2,17.1],[31.8,44.3],[31.2,43],[43.9,17.4],[20.2,1.6],[1.4,23],[0,23]],"o":[[0,-11.5],[11.5,-1.5],[3,11.2],[0,0],[10,-4.1],[-2.8,-10.5],[-10.8,1.4],[0,0],[0,0]]}],"h":1},{"t":230,"s":[{"c":true,"i":[[0,0],[-11.5,1.5],[-2.9,-11.2],[10.8,-4.3],[0,0],[2.7,10.6],[10.8,-1.4],[0,-10.9],[0,0]],"v":[[0,23],[20.1,0.2],[45.3,17.3],[31.5,44.4],[30.9,43.1],[43.9,17.6],[20.3,1.6],[1.4,23],[0,23]],"o":[[0,-11.6],[11.5,-1.5],[2.9,11.2],[0,0],[10.1,-4],[-2.7,-10.6],[-10.8,1.4],[0,0],[0,0]]}],"h":1},{"t":231,"s":[{"c":true,"i":[[0,0],[-11.5,1.4],[-2.8,-11.3],[10.9,-4.1],[0,0],[2.6,10.6],[10.8,-1.3],[0,-10.9],[0,0]],"v":[[0,23],[20.2,0.2],[45.3,17.5],[31.2,44.5],[30.7,43.2],[44,17.8],[20.4,1.5],[1.4,23],[0,23]],"o":[[0,-11.6],[11.5,-1.4],[2.8,11.3],[0,0],[10.2,-3.9],[-2.6,-10.6],[-10.8,1.3],[0,0],[0,0]]}],"h":1},{"t":232,"s":[{"c":true,"i":[[0,0],[-11.6,1.4],[-2.7,-11.3],[10.9,-4],[0,0],[2.6,10.7],[10.9,-1.3],[0,-11],[0,0]],"v":[[0,23],[20.3,0.2],[45.4,17.6],[31,44.6],[30.5,43.3],[44,18],[20.5,1.5],[1.4,23],[0,23]],"o":[[0,-11.7],[11.6,-1.4],[2.7,11.3],[0,0],[10.3,-3.8],[-2.6,-10.7],[-10.9,1.3],[0,0],[0,0]]}],"h":1},{"t":233,"s":[{"c":true,"i":[[0,0],[-11.6,1.3],[-2.7,-11.4],[11,-3.9],[0,0],[2.5,10.7],[10.9,-1.3],[0,-11],[0,0]],"v":[[0,23],[20.4,0.2],[45.4,17.8],[30.8,44.7],[30.3,43.4],[44.1,18.1],[20.5,1.5],[1.4,23],[0,23]],"o":[[0,-11.7],[11.6,-1.3],[2.7,11.4],[0,0],[10.3,-3.7],[-2.5,-10.7],[-10.9,1.3],[0,0],[0,0]]}],"h":1},{"t":234,"s":[{"c":true,"i":[[0,0],[-11.6,1.3],[-2.6,-11.4],[11.1,-3.9],[0,0],[2.4,10.7],[10.9,-1.2],[0,-11],[0,0]],"v":[[0,23],[20.4,0.1],[45.4,17.9],[30.6,44.7],[30.1,43.4],[44.1,18.2],[20.6,1.5],[1.4,23],[0,23]],"o":[[0,-11.7],[11.6,-1.3],[2.6,11.4],[0,0],[10.4,-3.6],[-2.4,-10.7],[-10.9,1.2],[0,0],[0,0]]}],"h":1},{"t":235,"s":[{"c":true,"i":[[0,0],[-11.7,1.3],[-2.6,-11.4],[11.1,-3.8],[0,0],[2.4,10.8],[11,-1.2],[0,-11],[0,0]],"v":[[0,23],[20.5,0.1],[45.4,18],[30.4,44.8],[30,43.5],[44.1,18.3],[20.6,1.5],[1.4,23],[0,23]],"o":[[0,-11.7],[11.7,-1.3],[2.6,11.4],[0,0],[10.4,-3.6],[-2.4,-10.8],[-11,1.2],[0,0],[0,0]]}],"h":1},{"t":236,"s":[{"c":true,"i":[[0,0],[-11.7,1.3],[-2.5,-11.5],[11.1,-3.7],[0,0],[2.4,10.8],[11,-1.2],[0,-11],[0,0]],"v":[[0,23],[20.5,0.1],[45.5,18.1],[30.3,44.8],[29.9,43.5],[44.1,18.4],[20.7,1.5],[1.4,23],[0,23]],"o":[[0,-11.7],[11.7,-1.3],[2.5,11.5],[0,0],[10.5,-3.5],[-2.4,-10.8],[-11,1.2],[0,0],[0,0]]}],"h":1},{"t":237,"s":[{"c":true,"i":[[0,0],[-11.7,1.2],[-2.5,-11.5],[11.2,-3.7],[0,0],[2.3,10.8],[11,-1.2],[0,-11.1],[0,0]],"v":[[0,23],[20.6,0.1],[45.5,18.1],[30.2,44.8],[29.8,43.5],[44.1,18.4],[20.7,1.5],[1.4,23],[0,23]],"o":[[0,-11.8],[11.7,-1.2],[2.5,11.5],[0,0],[10.5,-3.5],[-2.3,-10.8],[-11,1.2],[0,0],[0,0]]}],"h":1},{"t":238,"s":[{"c":true,"i":[[0,0],[-11.7,1.2],[-2.5,-11.5],[11.2,-3.7],[0,0],[2.3,10.8],[11,-1.2],[0,-11.1],[0,0]],"v":[[0,23],[20.6,0.1],[45.5,18.2],[30.2,44.9],[29.7,43.5],[44.1,18.5],[20.7,1.5],[1.4,23],[0,23]],"o":[[0,-11.8],[11.7,-1.2],[2.5,11.5],[0,0],[10.5,-3.4],[-2.3,-10.8],[-11,1.2],[0,0],[0,0]]}],"h":1},{"t":239,"s":[{"c":true,"i":[[0,0],[-11.7,1.2],[-2.5,-11.5],[11.2,-3.6],[0,0],[2.3,10.8],[11,-1.2],[0,-11.1],[0,0]],"v":[[0,23],[20.6,0.1],[45.5,18.2],[30.1,44.9],[29.7,43.6],[44.1,18.5],[20.7,1.5],[1.4,23],[0,23]],"o":[[0,-11.8],[11.7,-1.2],[2.5,11.5],[0,0],[10.5,-3.4],[-2.3,-10.8],[-11,1.2],[0,0],[0,0]]}],"h":1},{"t":240,"s":[{"c":true,"i":[[0,0],[-11.7,1.2],[-2.4,-11.5],[11.2,-3.6],[0,0],[2.3,10.8],[11,-1.2],[0,-11.1],[0,0]],"v":[[0,23],[20.6,0.1],[45.5,18.2],[30.1,44.9],[29.7,43.6],[44.1,18.5],[20.7,1.5],[1.4,23],[0,23]],"o":[[0,-11.8],[11.7,-1.2],[2.4,11.5],[0,0],[10.5,-3.4],[-2.3,-10.8],[-11,1.2],[0,0],[0,0]]}],"h":1},{"t":241,"s":[{"c":true,"i":[[0,0],[-11.6,0.8],[-2.2,-11.5],[11.1,-3.5],[0,0],[2,10.8],[10.9,-0.7],[0.5,-10.9],[0,0]],"v":[[0,21.9],[21.4,0.1],[45.6,18.7],[29.9,44.9],[29.5,43.6],[44.2,19],[21.5,1.4],[1.4,21.9],[0,21.9]],"o":[[0.6,-11.6],[11.6,-0.8],[2.2,11.5],[0,0],[10.5,-3.3],[-2,-10.8],[-10.9,0.7],[0,0],[0,0]]}],"h":1},{"t":242,"s":[{"c":true,"i":[[0,0],[-11.5,0.2],[-1.8,-11.4],[11,-3.3],[0,0],[1.6,10.7],[10.8,-0.2],[1.3,-10.7],[0,0]],"v":[[0.2,20.2],[22.6,0],[45.7,19.5],[29.6,45],[29.2,43.7],[44.4,19.7],[22.6,1.4],[1.5,20.4],[0.2,20.2]],"o":[[1.4,-11.4],[11.5,-0.2],[1.8,11.4],[0,0],[10.3,-3.1],[-1.6,-10.7],[-10.8,0.2],[0,0],[0,0]]}],"h":1},{"t":243,"s":[{"c":true,"i":[[0,0],[-11.3,-0.6],[-1.2,-11.2],[10.9,-3],[0,0],[1.2,10.5],[10.6,0.6],[2.3,-10.4],[0,0]],"v":[[0.5,18.1],[24.2,0],[45.9,20.5],[29.2,45.2],[28.8,43.8],[44.5,20.6],[24.1,1.4],[1.9,18.4],[0.5,18.1]],"o":[[2.4,-11],[11.3,0.6],[1.2,11.2],[0,0],[10.2,-2.8],[-1.2,-10.5],[-10.6,-0.6],[0,0],[0,0]]}],"h":1},{"t":244,"s":[{"c":true,"i":[[0,0],[-10.9,-1.5],[-0.6,-11],[10.7,-2.7],[0,0],[0.6,10.3],[10.2,1.4],[3.4,-9.8],[0,0]],"v":[[1.3,15.5],[26.2,0.2],[46,21.8],[28.6,45.3],[28.3,44],[44.6,21.8],[26,1.6],[2.6,15.9],[1.3,15.5]],"o":[[3.6,-10.4],[10.9,1.5],[0.6,11],[0,0],[10,-2.5],[-0.6,-10.3],[-10.2,-1.4],[0,0],[0,0]]}],"h":1},{"t":245,"s":[{"c":true,"i":[[0,0],[-10.3,-2.6],[0.1,-10.7],[10.4,-2.3],[0,0],[-0.1,10],[9.7,2.4],[4.6,-8.9],[0,0]],"v":[[2.6,12.4],[28.6,0.7],[46,23.3],[28,45.5],[27.7,44.1],[44.6,23.3],[28.3,2],[3.8,13.1],[2.6,12.4]],"o":[[4.9,-9.5],[10.3,2.6],[-0.1,10.7],[0,0],[9.8,-2.2],[0.1,-10],[-9.7,-2.4],[0,0],[0,0]]}],"h":1},{"t":246,"s":[{"c":true,"i":[[0,0],[-9.6,-3.7],[0.9,-10.2],[10.1,-1.9],[0,0],[-0.9,9.6],[9,3.5],[5.8,-7.7],[0,0]],"v":[[4.6,9.2],[31.3,1.5],[45.9,25.1],[27.2,45.6],[27,44.3],[44.5,25],[30.8,2.8],[5.7,10],[4.6,9.2]],"o":[[6.2,-8.2],[9.6,3.7],[-0.9,10.2],[0,0],[9.5,-1.8],[0.9,-9.6],[-9,-3.5],[0,0],[0,0]]}],"h":1},{"t":247,"s":[{"c":true,"i":[[0,0],[-8.6,-4.8],[1.8,-9.7],[9.7,-1.4],[0,0],[-1.7,9.1],[8.1,4.5],[6.9,-6.2],[0,0]],"v":[[7.5,6],[34.2,2.9],[45.6,27.1],[26.4,45.8],[26.2,44.4],[44.3,26.9],[33.5,4.1],[8.5,7],[7.5,6]],"o":[[7.3,-6.6],[8.6,4.8],[-1.8,9.7],[0,0],[9.2,-1.4],[1.7,-9.1],[-8.1,-4.5],[0,0],[0,0]]}],"h":1},{"t":248,"s":[{"c":true,"i":[[0,0],[-7.4,-5.7],[2.6,-9],[9.3,-1],[0,0],[-2.4,8.5],[7,5.4],[7.6,-4.5],[0,0]],"v":[[11.4,3.2],[37.1,4.8],[45.1,29.3],[25.4,45.9],[25.3,44.5],[43.8,28.9],[36.2,5.9],[12,4.4],[11.4,3.2]],"o":[[8.1,-4.8],[7.4,5.7],[-2.6,9],[0,0],[8.8,-0.9],[2.4,-8.5],[-7,-5.4],[0,0],[0,0]]}],"h":1},{"t":249,"s":[{"c":true,"i":[[0,0],[-6.1,-6.5],[3.3,-8.3],[8.9,-0.6],[0,0],[-3.1,7.8],[5.7,6.1],[8,-2.6],[0,0]],"v":[[15.9,1.1],[39.8,7.3],[44.4,31.5],[24.4,46],[24.4,44.6],[43.1,31],[38.8,8.2],[16.3,2.4],[15.9,1.1]],"o":[[8.5,-2.7],[6.1,6.5],[-3.3,8.3],[0,0],[8.4,-0.5],[3.1,-7.8],[-5.7,-6.1],[0,0],[0,0]]}],"h":1},{"t":250,"s":[{"c":true,"i":[[0,0],[-4.7,-7],[3.9,-7.5],[8.4,-0.2],[0,0],[-3.7,7],[4.4,6.6],[7.9,-0.7],[0,0]],"v":[[20.9,0.1],[42.1,10.2],[43.4,33.7],[23.4,46],[23.4,44.6],[42.2,33],[41,11],[21.1,1.5],[20.9,0.1]],"o":[[8.4,-0.8],[4.7,7],[-3.9,7.5],[0,0],[7.9,-0.1],[3.7,-7],[-4.4,-6.6],[0,0],[0,0]]}],"h":1},{"t":251,"s":[{"c":true,"i":[[0,0],[1,-12.2],[2.1000000000000014,-3.1999999999999957],[3.3999999999999986,-1.6999999999999957],[4.100000000000001,0.10000000000000142],[0,0],[-0.9,11.5],[11.4,1.5],[0,0]],"v":[[26.1,0.2],[45.9,24.8],[42.1,35.8],[33.7,43.3],[22.4,46],[22.4,44.6],[44.6,24.7],[25.9,1.6],[26.1,0.2]],"o":[[12.1,1.6],[-0.29999999999999716,4.099999999999998],[-2.200000000000003,3.200000000000003],[-3.400000000000002,1.8000000000000043],[0,0],[11.5,0.3],[0.9,-11.5],[0,0],[0,0]]}],"h":1},{"t":252,"s":[{"c":true,"i":[[0,0],[2.4,-11.2],[2.299999999999997,-2.700000000000003],[3.299999999999997,-1.5],[3.8000000000000007,0.30000000000000426],[0,0],[-2.3,10.5],[10.1,3.7],[0,0]],"v":[[31,1.4],[45.5,27.8],[40.7,37.6],[32.2,44.1],[21.4,45.9],[21.5,44.6],[44.1,27.6],[30.5,2.7],[31,1.4]],"o":[[10.7,4],[-0.7999999999999972,3.6999999999999993],[-2.3000000000000043,2.799999999999997],[-3.3000000000000043,1.3999999999999986],[0,0],[10.7,0.8],[2.3,-10.5],[0,0],[0,0]]}],"h":1},{"t":253,"s":[{"c":true,"i":[[0,0],[-1.7999999999999972,-2.9000000000000004],[-0.3999999999999986,-3.3999999999999986],[1.1999999999999957,-3.3999999999999986],[10.6,1.2],[0,0],[-3.4,9.5],[8.5,5.4],[0,0]],"v":[[35.3,3.6],[42.5,11],[45.9,20.5],[44.7,30.7],[20.4,45.9],[20.6,44.5],[43.4,30.2],[34.6,4.8],[35.3,3.6]],"o":[[3,1.9],[1.7999999999999972,2.9000000000000004],[0.3999999999999986,3.3000000000000007],[-3.6,10.1],[0,0],[10,1.1],[3.4,-9.5],[0,0],[0,0]]}],"h":1},{"t":254,"s":[{"c":true,"i":[[0,0],[-1.1999999999999957,-3],[0.10000000000000142,-3.1999999999999993],[1.5,-2.9999999999999964],[9.9,1.5],[0,0],[-4.2,8.4],[6.8,6.6],[0,0]],"v":[[39,6.5],[44.4,14.6],[46,23.9],[43.6,33.3],[19.5,45.7],[19.7,44.4],[42.4,32.6],[38,7.5],[39,6.5]],"o":[[2.3999999999999986,2.3000000000000007],[1.2000000000000028,2.9000000000000004],[-0.10000000000000142,3.200000000000003],[-4.5,9],[0,0],[9.3,1.4],[4.2,-8.4],[0,0],[0,0]]}],"h":1},{"t":255,"s":[{"c":true,"i":[[0,0],[-0.6000000000000014,-3],[0.5,-3],[1.7000000000000028,-2.6000000000000014],[9.2,1.8],[0,0],[-4.8,7.4],[5,7.2],[0,0]],"v":[[41.9,9.8],[45.5,18.2],[45.7,27.1],[42.3,35.6],[18.6,45.6],[18.9,44.2],[41.1,34.8],[40.7,10.6],[41.9,9.8]],"o":[[1.8000000000000043,2.5999999999999996],[0.7000000000000028,2.900000000000002],[-0.6000000000000014,3],[-5.1,7.9],[0,0],[8.6,1.7],[4.8,-7.4],[0,0],[0,0]]}],"h":1},{"t":256,"s":[{"c":true,"i":[[0,0],[-0.10000000000000142,-2.8000000000000007],[0.8999999999999986,-2.700000000000003],[1.9000000000000057,-2.3000000000000043],[8.5,2],[0,0],[-5.2,6.4],[3.4,7.5],[0,0]],"v":[[43.9,13.5],[45.9,21.8],[44.9,30.1],[40.8,37.6],[17.8,45.4],[18.1,44.1],[39.7,36.7],[42.7,14],[43.9,13.5]],"o":[[1.2000000000000028,2.6999999999999993],[0.20000000000000284,2.8000000000000007],[-0.8999999999999986,2.6999999999999957],[-5.6,6.8],[0,0],[8,1.9],[5.2,-6.4],[0,0],[0,0]]}],"h":1},{"t":257,"s":[{"c":true,"i":[[0,0],[0.20000000000000284,-2.700000000000003],[1.1000000000000014,-2.400000000000002],[1.8999999999999986,-1.8999999999999986],[7.9,2.1],[0,0],[-5.5,5.4],[2,7.5],[0,0]],"v":[[45.2,17.1],[45.9,25.1],[43.8,32.7],[39.2,39.3],[17,45.2],[17.4,43.9],[38.3,38.3],[43.9,17.5],[45.2,17.1]],"o":[[0.6999999999999957,2.599999999999998],[-0.29999999999999716,2.599999999999998],[-1.0999999999999943,2.3999999999999986],[-5.8,5.8],[0,0],[7.4,2],[5.5,-5.4],[0,0],[0,0]]}],"h":1},{"t":258,"s":[{"c":true,"i":[[0,0],[0.6000000000000014,-2.3999999999999986],[1.2999999999999972,-2.1000000000000014],[2,-1.5999999999999943],[7.4,2.2],[0,0],[-5.6,4.6],[0.7,7.2],[0,0]],"v":[[45.9,20.7],[45.4,28.2],[42.6,35.1],[37.6,40.8],[16.3,45],[16.7,43.7],[36.7,39.7],[44.5,20.8],[45.9,20.7]],"o":[[0.30000000000000426,2.6000000000000014],[-0.6000000000000014,2.5],[-1.3999999999999986,2.1000000000000014],[-5.9,4.9],[0,0],[6.9,2.1],[5.6,-4.6],[0,0],[0,0]]}],"h":1},{"t":259,"s":[{"c":true,"i":[[0,0],[0.7999999999999972,-2.1999999999999993],[1.3999999999999986,-1.8000000000000043],[2,-1.3999999999999986],[6.8,2.3],[0,0],[-5.6,3.8],[-0.3,6.8],[0,0]],"v":[[46,24.1],[44.6,31],[41.2,37.1],[36,42],[15.7,44.8],[16.1,43.5],[35.2,40.8],[44.6,24],[46,24.1]],"o":[[-0.10000000000000142,2.3999999999999986],[-0.8000000000000043,2.200000000000003],[-1.5,1.8999999999999986],[-6,4.1],[0,0],[6.4,2.2],[5.6,-3.8],[0,0],[0,0]]}],"h":1},{"t":260,"s":[{"c":true,"i":[[0,0],[1,-1.8999999999999986],[1.5,-1.6000000000000014],[2,-1.1000000000000014],[6.4,2.3],[0,0],[-5.5,3.2],[-1.2,6.3],[0,0]],"v":[[45.6,27.2],[43.5,33.5],[39.7,38.9],[34.4,43],[15.1,44.6],[15.6,43.3],[33.7,41.8],[44.3,26.9],[45.6,27.2]],"o":[[-0.3999999999999986,2.1999999999999993],[-1,2],[-1.6000000000000014,1.6000000000000014],[-5.9,3.4],[0,0],[6,2.2],[5.5,-3.2],[0,0],[0,0]]}],"h":1},{"t":261,"s":[{"c":true,"i":[[0,0],[1.1999999999999957,-1.8000000000000043],[1.6000000000000014,-1.3999999999999986],[1.9000000000000057,-0.8999999999999986],[5.9,2.3],[0,0],[-5.4,2.6],[-1.8,5.7],[0,0]],"v":[[44.9,30],[42.2,35.7],[38.1,40.4],[32.8,43.8],[14.5,44.4],[15.1,43.1],[32.2,42.5],[43.6,29.6],[44.9,30]],"o":[[-0.6000000000000014,2],[-1.1000000000000014,1.6999999999999957],[-1.6000000000000014,1.3000000000000043],[-5.8,2.7],[0,0],[5.6,2.2],[5.4,-2.6],[0,0],[0,0]]}],"h":1},{"t":262,"s":[{"c":true,"i":[[0,0],[1.6000000000000014,-1.7000000000000028],[2.1000000000000014,-1.1000000000000014],[2.3000000000000007,-0.5],[2.3999999999999986,0.20000000000000284],[2.3000000000000007,1],[0,0],[-4.9,10.6],[0,0]],"v":[[43.9,32.6],[39.9,38.6],[34.4,42.9],[28,45.4],[21,45.9],[14,44.2],[14.6,42.9],[42.7,32],[43.9,32.6]],"o":[[-1,2.299999999999997],[-1.6000000000000014,1.6999999999999957],[-2,1.2000000000000028],[-2.3000000000000007,0.6000000000000014],[-2.3000000000000007,-0.19999999999999574],[0,0],[10.8,4.6],[0,0],[0,0]]}],"h":1},{"t":263,"s":[{"c":true,"i":[[0,0],[1.6000000000000014,-1.5],[2,-0.9000000000000057],[2.1000000000000014,-0.30000000000000426],[2.1999999999999993,0.30000000000000426],[2.0999999999999996,1],[0,0],[-5.6,9.4],[0,0]],"v":[[42.7,34.8],[38.4,40.1],[32.9,43.7],[26.7,45.7],[20.1,45.8],[13.6,44],[14.1,42.7],[41.6,34.1],[42.7,34.8]],"o":[[-1.2000000000000028,2],[-1.6999999999999957,1.5],[-2,1],[-2.1999999999999993,0.3999999999999986],[-2.200000000000003,-0.19999999999999574],[0,0],[10,4.5],[0,0],[0,0]]}],"h":1},{"t":264,"s":[{"c":true,"i":[[0,0],[1.7000000000000028,-1.2999999999999972],[1.8999999999999986,-0.7999999999999972],[2,-0.29999999999999716],[2.099999999999998,0.3999999999999986],[2,0.9000000000000057],[0,0],[-6.2,8.3],[0,0]],"v":[[41.5,36.7],[37,41.3],[31.6,44.4],[25.6,45.9],[19.3,45.7],[13.2,43.8],[13.7,42.5],[40.3,35.9],[41.5,36.7]],"o":[[-1.2999999999999972,1.7999999999999972],[-1.7000000000000028,1.2000000000000028],[-1.9000000000000021,0.7000000000000028],[-2.1000000000000014,0.20000000000000284],[-2.1000000000000014,-0.30000000000000426],[0,0],[9.3,4.4],[0,0],[0,0]]}],"h":1},{"t":265,"s":[{"c":true,"i":[[0,0],[1.7000000000000028,-1],[1.8000000000000007,-0.6000000000000014],[2,-0.10000000000000142],[2,0.3999999999999986],[1.799999999999999,0.8999999999999986],[0,0],[-6.5,7.2],[0,0]],"v":[[40.1,38.4],[35.5,42.3],[30.2,44.9],[24.4,46],[18.5,45.6],[12.8,43.6],[13.4,42.4],[39.1,37.5],[40.1,38.4]],"o":[[-1.3999999999999986,1.5],[-1.7000000000000028,1.1000000000000014],[-1.8999999999999986,0.6000000000000014],[-2,0.10000000000000142],[-1.8999999999999986,-0.3999999999999986],[0,0],[8.7,4.3],[0,0],[0,0]]}],"h":1},{"t":266,"s":[{"c":true,"i":[[0,0],[1.6000000000000014,-0.8999999999999986],[1.8000000000000007,-0.5],[1.8999999999999986,-0.10000000000000142],[1.8000000000000007,0.3999999999999986],[1.6999999999999993,0.8999999999999986],[0,0],[-6.7,6.2],[0,0]],"v":[[38.7,39.8],[34.1,43.1],[28.9,45.2],[23.3,46],[17.8,45.4],[12.4,43.4],[13,42.2],[37.7,38.8],[38.7,39.8]],"o":[[-1.4000000000000057,1.3000000000000043],[-1.7000000000000028,0.8999999999999986],[-1.8999999999999986,0.5],[-1.8000000000000007,0],[-1.9000000000000004,-0.3999999999999986],[0,0],[8.1,4.2],[0,0],[0,0]]}],"h":1},{"t":267,"s":[{"c":true,"i":[[0,0],[1.5999999999999943,-0.6999999999999957],[1.6999999999999993,-0.3999999999999986],[1.8000000000000007,0],[1.7999999999999972,0.5],[1.5999999999999996,0.8999999999999986],[0,0],[-6.8,5.4],[0,0]],"v":[[37.3,41],[32.7,43.8],[27.7,45.5],[22.4,46],[17.1,45.2],[12.1,43.2],[12.7,42],[36.4,39.9],[37.3,41]],"o":[[-1.3999999999999986,1.1000000000000014],[-1.6000000000000014,0.8000000000000043],[-1.8000000000000007,0.3999999999999986],[-1.7999999999999972,-0.10000000000000142],[-1.700000000000001,-0.5],[0,0],[7.6,4.1],[0,0],[0,0]]}],"h":1},{"t":268,"s":[{"c":true,"i":[[0,0],[1.5,-0.6000000000000014],[1.6000000000000014,-0.20000000000000284],[1.6999999999999993,0.10000000000000142],[1.6999999999999993,